tree
version=v3
num_class=1
num_tree_per_iteration=1
label_index=0
max_feature_idx=42
objective=regression
feature_names=f_1 f_2 f_3 f_4 f_5 f_6 f_7 f_8 f_9 f_10 f_11 f_12 f_13 f_14 f_15 f_16 f_17 f_18 f_19 f_20 f_21 f_22 f_23 f_24 f_25 f_26 f_27 f_28 f_29 f_30 f_31 f_32 f_33 f_34 f_35 f_36 f_37 f_38 f_39 f_40 f_41 f_42 f_43
feature_infos=[0:1] [0:1] [0:1] [19:84] [0:1] [0:1] [0:1] [0:1] [0:1] [0:1] [-0.02:0.97999999999999998] [0:1] [0:1] [0:1] [0:1] [0:1] [0:1] [-0.14000000000000001:0.85999999999999999] [0:1] [-1:11] [-1:13] [0:9] [-1:9] [-1:12] [-1:6] [-1:10] [0:260] [0:610] [0:20] [0:333] [0:1] [-1:9] [0:10] [0:1623] [-1:60] [0:1] [0:5] [-1:8] [0:178] [0:173] [-0.13:0.87] [-0.20999999999999999:0.79000000000000004] [0:80]
tree_sizes=2852 2934 2957 2929 2929 2946 2933 2931 2943 2935 2925 2913 2929 2939 2944 2933 2927 2938 2930 2914

Tree=0
num_leaves=31
num_cat=0
split_feature=22 41 1 34 36 36 41 37 12 13 35 36 21 33 11 41 36 24 24 0 35 11 37 41 37 21 36 35 41 36
split_gain=68.9175 49.6578 45.322 17.1659 16.6454 13.2664 11.0414 10.6714 9.93405 12.3981 10.6662 7.14866 6.85909 6.80912 5.91616 6.57165 5.64569 5.41187 5.30618 5.1281 4.66401 4.01583 3.88283 3.84385 3.6956 3.53235 3.97096 5.99343 3.32205 3.43167
threshold=1.5000000000000002 -0.15499999999999997 1.0000000180025095e-35 15.000000000000002 1.5000000000000002 2.5000000000000004 0.03500000000000001 2.5000000000000004 1.0000000180025095e-35 1.0000000180025095e-35 1.0000000180025095e-35 2.5000000000000004 1.0000000180025095e-35 20.500000000000004 1.0000000180025095e-35 0.115 1.0000000180025095e-35 3.5000000000000004 5.5000000000000009 1.0000000180025095e-35 1.0000000180025095e-35 1.0000000180025095e-35 1.5000000000000002 0.31500000000000006 2.5000000000000004 1.0000000180025095e-35 1.0000000180025095e-35 1.0000000180025095e-35 0.33500000000000008 3.5000000000000004
decision_type=2 2 2 2 2 2 2 2 2 2 2 2 2 2 2 2 2 2 2 2 2 2 2 2 2 2 2 2 2 2
left_child=1 19 5 8 -5 12 17 20 23 -10 11 18 -3 -2 15 -9 -12 24 -11 22 -6 -18 -1 25 -7 -4 -27 -28 29 -8
right_child=13 2 3 4 7 6 28 14 9 10 16 -13 -14 -15 -16 -17 21 -19 -20 -21 -22 -23 -24 -25 -26 26 27 -29 -30 -31
leaf_value=0.225385225591059 0.2197940777975643 0.23257259814089867 0.23681007030806256 0.22215564698176499 0.24395522102639855 0.23070303665230574 0.22138514708722229 0.22804185050253722 0.22371712639144556 0.2314104185328793 0.25013435916424137 0.24835541755209631 0.22090798562525824 0.24103124450535271 0.23183217671747897 0.22243145801981559 0.23160728952091628 0.23178892757839326 0.24534410987389532 0.22027107580991578 0.2321599285481501 0.23792498210625435 0.22201102771184628 0.22225680897464895 0.22546863153902769 0.22418397978556212 0.2386600822953171 0.22901211571537905 0.22002510788012905 0.2263489260378348
leaf_weight=1385 5583 133 173 1045 90 445 551 2124 252 186 49 226 2404 38 689 692 1233 745 108 2263 1218 316 2218 175 1392 306 192 996 566 946
leaf_count=1385 5583 133 173 1045 90 445 551 2124 252 186 49 226 2404 38 689 692 1233 745 108 2263 1218 316 2218 175 1392 306 192 996 566 946
internal_value=0 0.0295863 0.0566115 0.0998971 0.0648874 -0.00407985 0.0276831 0.0897257 0.148588 0.191403 0.216351 0.340753 -0.0622347 -0.0938716 0.0609608 0.0406387 0.175869 0.0712634 0.237954 -0.0498955 0.166806 0.165298 -0.026463 0.0935012 0.042108 0.108302 0.0926378 0.118803 -0.026861 -0.00218634
internal_weight=0 23118 17252 10070 5858 7182 4645 4813 4212 2370 2118 520 2537 5621 3505 2816 1598 2582 294 5866 1308 1549 3603 1842 1837 1667 1494 1188 2063 1497
internal_count=28739 23118 17252 10070 5858 7182 4645 4813 4212 2370 2118 520 2537 5621 3505 2816 1598 2582 294 5866 1308 1549 3603 1842 1837 1667 1494 1188 2063 1497
shrinkage=1


Tree=1
num_leaves=31
num_cat=0
split_feature=22 41 1 34 36 36 41 37 11 41 21 33 41 24 36 10 37 24 13 0 35 37 11 37 35 14 37 36 41 13
split_gain=62.1981 44.8162 40.9031 15.4922 15.0225 11.9729 9.96486 9.65663 9.20571 6.42613 6.19033 6.15262 6.11164 7.76271 5.60578 5.11705 5.17864 4.88421 4.67225 4.62811 4.5342 3.50425 3.44673 4.25664 3.63809 3.37854 3.33528 3.335 3.53594 3.2267
threshold=1.5000000000000002 -0.15499999999999997 1.0000000180025095e-35 15.000000000000002 1.5000000000000002 2.5000000000000004 0.03500000000000001 6.5000000000000009 1.0000000180025095e-35 0.18500000000000003 1.0000000180025095e-35 9.5000000000000018 0.13500000000000004 5.5000000000000009 3.5000000000000004 0.015000000000000001 1.0000000180025095e-35 3.5000000000000004 1.0000000180025095e-35 1.0000000180025095e-35 1.0000000180025095e-35 1.5000000000000002 1.0000000180025095e-35 2.5000000000000004 1.0000000180025095e-35 1.0000000180025095e-35 2.5000000000000004 2.5000000000000004 -0.11499999999999998 1.0000000180025095e-35
decision_type=2 2 2 2 2 2 2 2 2 2 2 2 2 2 2 2 2 2 2 2 2 2 2 2 2 2 2 2 2 2
left_child=1 19 5 8 -5 10 17 9 12 22 -3 -2 13 15 -9 16 -4 26 -15 21 -20 -1 23 24 -6 -8 -7 -25 -29 -17
right_child=11 2 3 4 7 6 25 14 -10 -11 -12 -13 -14 18 -16 29 -18 -19 20 -21 -22 -23 -24 27 -26 -27 -28 28 -30 -31
leaf_value=0.0007162982666535498 -0.0046218219152125593 0.0075443020328543236 -0.0067084823851473636 -0.0023518012827663335 0.018049153244053876 0.0057682184808039933 -0.003316055862406016 -0.0064596862264490323 0.012262552351686877 -0.0015857940811221884 -0.0035370798406505742 0.012337136737726353 0.0018136430242709047 -0.0029005384516148343 0.002075375674784869 -0.0052465821504592905 0.0077818374647753378 0.0067998150811099363 0.022895173482218034 -0.0041421441986030883 0.011320424466129131 -0.0024891898989999909 0.010353583332177847 -0.0045110644003666872 0.0070747996029514142 0.0007309130729677586 0.00079553373928727784 0.00088957415893673906 0.0059696880359215087 0.0037820682149184376
leaf_weight=1385 5567 133 64 1045 81 445 1023 247 707 295 2404 54 696 42 870 125 1686 745 118 2263 299 2218 419 109 1116 1040 1392 480 1196 475
leaf_count=1385 5567 133 64 1045 81 445 1023 247 707 295 2404 54 696 42 870 125 1686 745 118 2263 299 2218 419 109 1116 1040 1392 480 1196 475
internal_value=0 0.028107 0.0537809 0.0949022 0.061643 -0.00387586 0.0262989 0.0852394 0.141159 0.109864 -0.059123 -0.089178 0.120162 0.140948 0.00376069 0.117715 0.145038 0.0677003 0.259896 -0.0474007 0.291915 -0.0251399 0.122144 0.110211 0.156349 -0.0255179 0.0400026 0.0792721 0.0902953 0.038022
internal_weight=0 23118 17252 10070 5858 7182 4645 4813 4212 3696 2537 5621 3505 2809 1117 2350 1750 2582 459 5866 417 3603 3401 2982 1197 2063 1837 1785 1676 600
internal_count=28739 23118 17252 10070 5858 7182 4645 4813 4212 3696 2537 5621 3505 2809 1117 2350 1750 2582 459 5866 417 3603 3401 2982 1197 2063 1837 1785 1676 600
shrinkage=0.05


Tree=2
num_leaves=31
num_cat=0
split_feature=22 41 1 12 36 11 41 41 41 13 35 36 21 5 32 41 36 21 37 35 37 41 41 24 24 13 24 37 35 37
split_gain=56.1337 40.4466 36.9151 12.9587 10.8055 10.0346 11.0064 9.18722 6.58925 5.94006 6.5519 9.72309 5.58677 5.20245 4.87608 4.4806 4.28009 11.3712 4.24853 4.13143 3.08073 3.41218 3.37424 3.05342 2.8561 2.8508 2.77261 2.72345 2.57838 2.48474
threshold=1.5000000000000002 -0.15499999999999997 1.0000000180025095e-35 1.0000000180025095e-35 2.5000000000000004 1.0000000180025095e-35 0.17500000000000002 0.13500000000000004 0.065000000000000016 1.0000000180025095e-35 1.0000000180025095e-35 2.5000000000000004 1.0000000180025095e-35 1.0000000180025095e-35 1.0000000180025095e-35 -0.17499999999999996 1.0000000180025095e-35 1.0000000180025095e-35 1.5000000000000002 1.0000000180025095e-35 2.5000000000000004 -0.11499999999999998 0.025000000000000005 5.5000000000000009 5.5000000000000009 1.0000000180025095e-35 3.5000000000000004 1.5000000000000002 1.0000000180025095e-35 6.5000000000000009
decision_type=2 2 2 2 2 2 2 2 2 2 2 2 2 2 2 2 2 2 2 2 2 2 2 2 2 2 2 2 2 2
left_child=1 15 4 8 12 6 9 13 16 -5 11 -11 -3 26 -2 23 17 -4 -17 -18 -12 -22 29 -1 -7 -14 -6 -27 -15 -23
right_child=14 2 3 5 7 24 -8 -9 -10 10 20 -13 25 28 -16 18 19 -19 -20 -21 21 22 -24 -25 -26 27 -28 -29 -30 -31
leaf_value=-0.0037741055466011561 -0.004338265173097231 0.0071670876185696833 0.011518750213957452 -0.00038756708227671112 -0.00033899506982808193 0.0085706666289106555 -0.0007119587474417958 -0.0024621596479425609 -0.00082239015142858765 0.0065737925556509993 0.0079568839283399081 0.020351217022421316 -0.0057356954565730648 0.011644013565778733 0.016961210745352288 0.0028595100341107737 0.010151585126360814 -0.0042354803357348347 -0.0021186307635843648 0.0037857346707536664 0.00030353636344273888 0.008841395188827773 0.0030056206881999971 -5.5941671404382712e-05 0.013965334388178572 0.0027678178115324542 0.0039343990698343023 -0.0029974812711554134 0.0041474643377480153 0.0018417757126240949
leaf_weight=3406 5594 133 154 325 1377 757 704 1227 1134 344 1042 204 828 125 27 703 286 447 1098 2342 375 740 700 659 363 242 524 1334 1392 153
leaf_count=3406 5594 133 154 325 1377 757 704 1227 1134 344 1042 204 828 125 27 703 286 447 1098 2342 375 740 700 659 363 242 524 1334 1392 153
internal_value=0 0.0267016 0.0510919 0.0901571 -0.00368207 0.121523 0.100803 0.024984 0.0491294 0.12166 0.133481 0.234052 -0.0561668 0.0516302 -0.0847191 -0.0450307 0.0721596 -0.00397245 -0.0035094 0.0895703 0.115171 0.0918921 0.112095 -0.0634267 0.206382 -0.0672045 0.0167788 -0.042244 0.0953035 0.152843
internal_weight=0 23118 17252 10070 7182 5707 4587 4645 4363 3883 3558 548 2537 3418 5621 5866 3229 601 1801 2628 3010 1968 1593 4065 1120 2404 1901 1576 1517 893
internal_count=28739 23118 17252 10070 7182 5707 4587 4645 4363 3883 3558 548 2537 3418 5621 5866 3229 601 1801 2628 3010 1968 1593 4065 1120 2404 1901 1576 1517 893
shrinkage=0.05


Tree=3
num_leaves=31
num_cat=0
split_feature=22 36 35 37 1 21 39 11 1 34 34 13 14 40 40 24 32 37 40 39 17 32 30 0 40 25 11 40 10 6
split_gain=50.6607 36.3755 36.1148 16.0991 15.3166 11.4712 11.0783 8.69358 7.21749 5.81597 5.4041 4.85129 4.68314 4.59337 5.27363 4.41997 4.40066 4.06848 4.04474 4.39552 3.56319 3.55608 3.18824 3.1282 2.83089 2.81792 2.7328 2.64488 2.49214 2.46781
threshold=1.5000000000000002 1.5000000000000002 1.0000000180025095e-35 5.5000000000000009 1.0000000180025095e-35 1.0000000180025095e-35 1.5000000000000002 1.0000000180025095e-35 1.0000000180025095e-35 15.000000000000002 15.000000000000002 1.0000000180025095e-35 1.0000000180025095e-35 0.34500000000000003 -0.094999999999999987 5.5000000000000009 1.0000000180025095e-35 2.5000000000000004 -0.11499999999999998 1.5000000000000002 -0.054999999999999993 1.0000000180025095e-35 1.0000000180025095e-35 1.0000000180025095e-35 0.22500000000000003 2.5000000000000004 1.0000000180025095e-35 -1.0000000180025095e-35 -0.014999999999999998 1.0000000180025095e-35
decision_type=2 2 2 2 2 2 2 2 2 2 2 2 2 2 2 2 2 2 2 2 2 2 2 2 2 2 2 2 2 2
left_child=1 3 9 5 12 29 10 13 -7 18 20 -10 -4 14 -6 -13 -2 -11 28 23 -5 22 25 -20 -17 27 -14 -16 -3 -1
right_child=16 2 4 6 7 8 -8 -9 11 17 -12 15 26 -15 21 24 -18 -19 19 -21 -22 -23 -24 -25 -26 -27 -28 -29 -30 -31
leaf_value=0.0095526678177217661 -0.0041213519498306296 0.015603817447826461 -0.0012262587404527907 0.0092699970524983116 0.0015003114233268326 -0.0044350164435123119 -0.0041173160965762923 0.0071961665496277742 -0.0036540856129726415 0.012963599296308113 -0.0024006459763959835 -0.00072096379339725851 0.00098233919521080004 -0.0054319236865814999 0.0058814077560154715 0.0072424565300049371 0.016113149899023554 0.0029480133558251733 0.021772385494294742 0.00048241623810359418 0.019764971739805497 0.023380470865716541 -0.0038767530964534795 0.01186343913411235 -0.0049973770709974431 -0.0021214889119500701 0.0057539696871892771 0.003078787411226237 0.0039187067720506874 -0.0040082841347425409
leaf_weight=240 5594 77 3273 298 3538 3141 201 1252 1244 174 76 1931 2140 170 1912 302 27 243 282 35 111 24 122 111 56 161 349 1504 112 39
leaf_count=240 5594 77 3273 298 3538 3141 201 1252 1244 174 76 1931 2140 170 1912 302 27 243 282 35 111 24 122 111 56 161 349 1504 112 39
internal_value=0 0.0253665 0.0532326 -0.0310989 0.0403093 -0.0455187 0.115054 0.0668355 -0.0538234 0.233771 0.196863 -0.0228163 0.000335982 0.0538475 0.0576517 0.00450142 -0.0804831 0.142544 0.295427 0.349231 0.242365 0.0839235 0.081434 0.379474 0.106557 0.086856 0.0330281 0.0929493 0.173586 0.153141
internal_weight=0 23118 15479 7639 14445 6953 686 8683 6674 1034 485 3533 5762 7431 7261 2289 5621 417 617 428 409 3723 3699 393 358 3577 2489 3416 189 279
internal_count=28739 23118 15479 7639 14445 6953 686 8683 6674 1034 485 3533 5762 7431 7261 2289 5621 417 617 428 409 3723 3699 393 358 3577 2489 3416 189 279
shrinkage=0.05


Tree=4
num_leaves=31
num_cat=0
split_feature=22 41 1 34 36 41 37 36 13 12 24 21 34 41 36 36 33 24 37 36 41 34 13 37 41 41 41 11 37 36
split_gain=45.7213 34.6433 30.4885 13.1576 11.9093 9.2957 8.29057 7.59377 7.58123 8.37572 6.28156 6.12417 5.32338 5.25871 5.10162 4.91464 4.86006 4.12559 3.85025 4.69224 3.17135 2.99997 3.66545 2.93159 2.8946 2.8548 2.78891 2.70665 3.50411 3.0151
threshold=1.5000000000000002 -0.15499999999999997 1.0000000180025095e-35 15.000000000000002 1.5000000000000002 0.03500000000000001 6.5000000000000009 2.5000000000000004 1.0000000180025095e-35 1.0000000180025095e-35 5.5000000000000009 1.0000000180025095e-35 1.0000000180025095e-35 0.18500000000000003 3.5000000000000004 3.5000000000000004 9.5000000000000018 3.5000000000000004 1.5000000000000002 1.0000000180025095e-35 0.33500000000000008 15.000000000000002 1.0000000180025095e-35 2.5000000000000004 0.03500000000000001 -0.12499999999999999 0.17500000000000002 1.0000000180025095e-35 2.5000000000000004 2.5000000000000004
decision_type=2 2 2 2 2 2 2 2 2 2 2 2 2 2 2 2 2 2 2 2 2 2 2 2 2 2 2 2 2 2
left_child=1 18 5 8 -5 7 13 12 11 24 -11 -4 -3 27 -7 -8 -2 23 19 -1 -16 22 -14 -9 -10 -25 -12 28 -6 -30
right_child=16 2 3 4 6 14 15 17 9 10 26 -13 21 -15 20 -17 -18 -19 -20 -21 -22 -23 -24 25 -26 -27 -28 -29 29 -31
leaf_value=-0.0036838942592100905 -0.0039677496956005889 0.010810445389326882 0.0093813361302018186 -0.0022621249104515791 0.0068871788456475822 -0.0040220561563797871 -0.0063726403241456762 0.005308401407150741 0.0056253550982268419 0.0074261784678789789 0.014940926938442012 -0.00074516926814623314 -0.0049354074910135555 -0.0016363565345941964 0.0016149304311005811 0.0016189720610092426 0.011104910696546238 0.0061869200404058369 -0.0030741982921533586 0.0012914876682724027 -0.0040337245413917464 -0.0039567876460921128 0.0032642695012553495 -0.0047407728811485351 0.00045399864838889 0.0015980964770583108 0.0063011157081315399 0.0090858357778454742 -0.0046673954900251615 0.0039146297671309805
leaf_weight=719 5567 85 200 1045 1197 1745 247 445 922 1487 517 589 202 295 946 870 54 745 3757 1390 337 866 419 209 383 1183 114 419 109 1676
leaf_count=719 5567 85 200 1045 1197 1745 247 445 922 1487 517 589 202 295 946 870 54 745 3757 1390 337 866 419 209 383 1183 114 419 109 1676
internal_value=0 0.0240982 0.046671 0.0821733 0.0515224 -0.00310727 0.072532 0.0276086 0.124802 0.145171 0.183999 0.036435 -0.0271872 0.0953483 -0.0452452 -0.00296395 -0.076459 0.06097 -0.0422888 -0.00809438 0.00262446 -0.0411002 0.0119413 0.035514 0.0821526 0.0129271 0.2676 0.106457 0.0958828 0.0678115
internal_weight=0 23118 17252 10070 5858 7182 4813 4154 4212 3423 2118 789 1572 3696 3028 1117 5621 2582 5866 2109 1283 1487 621 1837 1305 1392 631 3401 2982 1785
internal_count=28739 23118 17252 10070 5858 7182 4813 4154 4212 3423 2118 789 1572 3696 3028 1117 5621 2582 5866 2109 1283 1487 621 1837 1305 1392 631 3401 2982 1785
shrinkage=0.05


Tree=5
num_leaves=31
num_cat=0
split_feature=22 41 1 34 36 12 36 41 13 40 5 31 41 35 36 41 24 40 24 17 36 35 24 11 33 41 41 36 0 36
split_gain=37.1808 28.9539 26.4295 12.3169 10.1953 7.80643 7.52793 7.25235 6.94941 6.38134 6.31859 5.62859 4.75845 4.26742 4.30796 4.1211 4.06307 4.18439 3.96991 3.62395 4.74719 4.02245 3.43745 3.39316 3.19825 2.92757 2.84315 2.6545 2.60725 2.35254
threshold=1.5000000000000002 -0.15499999999999997 1.0000000180025095e-35 15.000000000000002 1.5000000000000002 1.0000000180025095e-35 2.5000000000000004 0.13500000000000004 1.0000000180025095e-35 -0.11499999999999998 1.0000000180025095e-35 -1.0000000180025095e-35 0.055000000000000007 1.0000000180025095e-35 1.5000000000000002 0.13500000000000004 5.5000000000000009 -0.044999999999999991 5.5000000000000009 -0.074999999999999997 1.0000000180025095e-35 1.0000000180025095e-35 3.5000000000000004 1.0000000180025095e-35 9.5000000000000018 0.085000000000000006 -0.14499999999999999 1.0000000180025095e-35 1.0000000180025095e-35 4.5000000000000009
decision_type=2 2 2 2 2 2 2 2 2 2 2 2 2 2 2 2 2 2 2 2 2 2 2 2 2 2 2 2 2 2
left_child=1 16 6 5 -5 15 11 10 -7 -10 22 25 23 14 18 19 28 -18 -11 20 -4 -22 -8 -6 29 -3 -12 -15 -1 -2
right_child=24 2 3 4 12 8 7 -9 9 13 26 -13 -14 27 -16 -17 17 -19 -20 -21 21 -23 -24 -25 -26 -27 -28 -29 -30 -31
leaf_value=-0.0018300497514621311 -0.0043406342308400046 0.012562226889173637 -0.0028685443709051709 -0.0024256719116653716 0.0034378266479544992 -0.00041512733830614129 -0.0013477212997056501 -0.0025968993993303086 0.0014323482822094645 0.002933075878536329 -0.0034781299057331954 -0.0032206019475793362 0.00058237608629662242 0.020487206003495628 0.01833284914493561 -0.0017649478887374693 0.00647896561123099 -0.0013021122359711192 0.016424125009461454 0.011031025300987742 0.011767870685883933 0.0034685881552577154 0.0033158915706827672 0.008258430584548759 0.0090202484203844649 -0.0033262220406255062 0.0048623356944832779 0.0077154063130334266 -0.0041596825306519586 -0.0018388370612491007
leaf_weight=3020 4425 89 246 1050 2980 247 1384 1217 280 128 110 2382 1421 42 240 346 247 575 95 176 175 881 553 416 49 43 1437 1298 1994 1193
leaf_count=3020 4425 89 246 1050 2980 247 1384 1217 280 128 110 2382 1421 42 240 346 247 575 95 176 175 881 553 416 49 43 1437 1298 1994 1193
internal_value=0 0.0164328 0.0370463 0.0702731 0.0407732 0.111938 -0.00910289 0.0145186 0.150293 0.1691 0.0377326 -0.0532734 0.0602358 0.190911 0.273676 0.0629422 -0.0444468 0.02072 0.173608 0.0859405 0.0677349 0.0968789 -0.000325847 0.0805667 -0.0739688 0.147729 0.0853857 0.162314 -0.0551303 -0.0761874
internal_weight=0 23072 17236 10021 5867 4154 7215 4701 2330 2083 3484 2514 4817 1803 463 1824 5836 822 223 1478 1302 1056 1937 3396 5667 132 1547 1340 5014 5618
internal_count=28739 23072 17236 10021 5867 4154 7215 4701 2330 2083 3484 2514 4817 1803 463 1824 5836 822 223 1478 1302 1056 1937 3396 5667 132 1547 1340 5014 5618
shrinkage=0.05


Tree=6
num_leaves=31
num_cat=0
split_feature=22 1 41 34 36 36 41 37 24 36 41 41 37 5 31 36 11 35 11 3 17 10 24 39 41 37 33 40 34 24
split_gain=33.5557 26.1919 21.11 13.4283 11.5437 8.77828 7.08172 6.64892 5.87634 5.01463 4.89909 5.53166 6.70239 4.89613 4.74817 4.26021 4.12623 3.94861 3.63974 3.53002 3.31265 3.24932 3.17727 3.1326 3.00975 3.08924 2.88642 2.82178 2.79943 2.78817
threshold=1.5000000000000002 1.0000000180025095e-35 -0.13499999999999998 15.000000000000002 2.5000000000000004 1.5000000000000002 0.13500000000000004 6.5000000000000009 -1.0000000180025095e-35 3.5000000000000004 0.13500000000000004 -0.14499999999999999 2.5000000000000004 1.0000000180025095e-35 -1.0000000180025095e-35 1.0000000180025095e-35 1.0000000180025095e-35 1.0000000180025095e-35 1.0000000180025095e-35 28.500000000000004 0.10500000000000002 0.015000000000000001 5.5000000000000009 2.5000000000000004 -0.18499999999999997 2.5000000000000004 9.5000000000000018 0.28500000000000009 15.000000000000002 3.5000000000000004
decision_type=2 2 2 2 2 2 2 2 2 2 2 2 2 2 2 2 2 2 2 2 2 2 2 2 2 2 2 2 2 2
left_child=1 4 22 6 14 -5 8 18 15 -9 11 -6 -13 29 -1 -4 -8 -17 23 -10 -18 -21 24 -7 -3 -26 -2 -24 -15 -14
right_child=26 2 3 5 10 7 16 9 19 -11 -12 12 13 28 -16 17 20 -19 -20 21 -22 -23 27 -25 25 -27 -28 -29 -30 -31
leaf_value=0.0055718852529923124 -0.0036189011742727914 -0.0028510438639958368 -0.0020053599159515914 -0.002420365730393476 -0.0023978196672703091 0.0027507708313405741 0.00028964178101427256 -0.0067546786424719689 0.0052555797931278314 0.0014309385834738266 -0.0024670545241337089 0.0068412599093581918 -0.0020219949412172383 0.0062065223500019674 -0.0034858609572505392 0.012592839498234832 0.0057468726275823057 0.0045372302480602049 0.0085668340844746969 0.01246000842915641 0.023889119376738866 0.006616315648836248 0.0039596163270374136 0.0075286484835783256 0.0012086958870854985 -0.0024453058390948128 0.0085692355827409385 -0.0047854998926503949 0.0011427561648651562 0.002679398664514776
leaf_weight=150 5618 1437 201 922 874 2128 696 236 403 903 1217 603 1168 528 4084 184 156 878 416 792 30 340 600 409 1746 865 49 109 565 432
leaf_count=150 5618 1437 201 922 874 2128 696 236 403 903 1217 603 1168 528 4084 184 156 878 416 792 30 340 600 409 1746 865 49 109 565 432
internal_value=0 0.0156112 0.0441065 0.0734103 -0.0242278 0.0397412 0.119284 0.0596026 0.143914 -0.00530231 0.00648113 0.0227726 0.0415279 0.0201895 -0.0632994 0.0933918 0.0411514 0.118659 0.0846371 0.185484 0.173461 0.214097 -0.00944968 0.0704206 -0.0202656 -3.68176e-05 -0.0702703 0.0523033 0.0717786 -0.0150524
internal_weight=0 23072 13451 8694 9621 5014 3680 4092 2798 1139 5387 4170 3296 2693 4234 1263 882 1062 2953 1535 186 1132 4757 2537 4048 2611 5667 709 1093 1600
internal_count=28739 23072 13451 8694 9621 5014 3680 4092 2798 1139 5387 4170 3296 2693 4234 1263 882 1062 2953 1535 186 1132 4757 2537 4048 2611 5667 709 1093 1600
shrinkage=0.05


Tree=7
num_leaves=31
num_cat=0
split_feature=22 41 1 34 36 12 41 13 40 37 34 36 37 36 36 39 37 11 35 41 24 40 6 17 41 34 4 36 41 22
split_gain=30.284 23.897 21.503 9.95952 8.39009 6.64864 6.58854 6.21014 5.58117 5.38269 5.21938 5.48111 5.19724 4.6342 4.43662 3.93619 4.09361 3.77015 3.50398 3.4875 3.42227 3.64458 3.36256 4.33683 3.24479 2.78842 2.66191 2.61653 2.59646 2.58033
threshold=1.5000000000000002 -0.15499999999999997 1.0000000180025095e-35 15.000000000000002 1.5000000000000002 1.0000000180025095e-35 0.03500000000000001 1.0000000180025095e-35 -0.11499999999999998 6.5000000000000009 15.000000000000002 2.5000000000000004 2.5000000000000004 3.5000000000000004 3.5000000000000004 1.5000000000000002 3.5000000000000004 1.0000000180025095e-35 1.0000000180025095e-35 0.13500000000000004 5.5000000000000009 -0.044999999999999991 1.0000000180025095e-35 -0.074999999999999997 -0.024999999999999998 1.0000000180025095e-35 1.0000000180025095e-35 4.5000000000000009 1.0000000180025095e-35 1.0000000180025095e-35
decision_type=2 2 2 2 2 2 2 2 2 2 2 2 2 2 2 2 2 2 2 2 2 2 2 2 2 2 2 2 2 2
left_child=1 20 6 5 -5 19 10 -7 -9 17 25 -12 -13 -11 -8 16 28 -6 24 22 -1 -22 23 -4 -18 -3 -26 -2 -10 -16
right_child=27 2 3 4 9 7 14 8 15 13 11 12 -14 -15 29 -17 18 -19 -20 -21 21 -23 -24 -25 26 -27 -28 -29 -30 -31
leaf_value=-0.0025141239540720541 -0.0038996916302804201 0.011751621295424069 0.0035720711747301011 -0.0021997949835799988 0.0030548292678286774 -0.00067659333529259996 -0.0038023343696665956 0.0011408492177724838 0.0086795201409103247 -0.0063659463016713259 -0.0038625069939699332 0.0059222137258536575 -0.0006380696661536469 0.0013955579947532537 -0.0016005228264439925 0.0039084638781172196 0.0059094185531139379 0.0078510796976216293 0.010047561258192689 -0.0017298248548039124 0.0060462622296231002 -0.0012155905067920685 -0.0035848680289759156 0.012392131800327121 0.025954530711727916 0.0024742240136070778 0.014330159956399274 -0.0012834127009796531 0.0012328178090537155 0.0031120990074658874
leaf_weight=5014 4450 85 1182 1050 3195 247 1762 280 546 244 854 414 1115 908 816 343 50 470 518 346 247 575 138 158 99 1718 98 1217 149 451
leaf_count=5014 4450 85 1182 1050 3195 247 1762 280 546 244 854 414 1115 908 816 343 50 470 518 346 247 575 138 158 99 1718 98 1217 149 451
internal_value=0 0.0148306 0.0335576 0.0635282 0.0370011 0.100994 -0.00806878 0.136391 0.154169 0.0546567 0.0176368 -0.0130779 0.0227645 -0.00496743 -0.0435932 0.174568 0.197215 0.073398 0.247685 0.0557776 -0.0404776 0.01933 0.0769341 0.092241 0.345694 0.0582319 0.403437 -0.0667568 0.141661 0.00153954
internal_weight=0 23072 17236 10021 5867 4154 7215 2330 2083 4817 4186 2383 1529 1152 3029 1803 1460 3665 765 1824 5836 822 1478 1340 247 1803 197 5667 695 1267
internal_count=28739 23072 17236 10021 5867 4154 7215 2330 2083 4817 4186 2383 1529 1152 3029 1803 1460 3665 765 1824 5836 822 1478 1340 247 1803 197 5667 695 1267
shrinkage=0.05


Tree=8
num_leaves=31
num_cat=0
split_feature=22 36 35 37 11 41 37 36 39 22 13 34 1 34 41 34 41 33 30 41 37 41 3 24 37 17 41 33 41 37
split_gain=27.3313 22.0714 24.9957 11.7331 11.618 8.22508 11.0045 9.11778 6.83419 6.5936 4.84102 4.87525 4.78459 4.59579 4.10528 3.98909 3.59966 3.39363 3.81682 3.38179 3.19463 2.95917 2.89959 2.80135 2.72286 2.69458 2.61063 2.58869 2.47094 3.00552
threshold=1.5000000000000002 1.5000000000000002 1.0000000180025095e-35 5.5000000000000009 1.0000000180025095e-35 -0.17499999999999996 2.5000000000000004 3.5000000000000004 1.5000000000000002 -1.0000000180025095e-35 1.0000000180025095e-35 15.000000000000002 1.0000000180025095e-35 15.000000000000002 -0.13499999999999998 15.000000000000002 0.045000000000000005 13.500000000000002 1.0000000180025095e-35 -0.14499999999999999 2.5000000000000004 0.13500000000000004 30.500000000000004 3.5000000000000004 1.5000000000000002 -0.054999999999999993 0.13500000000000004 9.5000000000000018 0.065000000000000016 1.0000000180025095e-35
decision_type=2 2 2 2 2 2 2 2 2 2 2 2 2 2 2 2 2 2 2 2 2 2 2 2 2 2 2 2 2 2
left_child=1 3 13 9 5 -4 14 16 15 -1 -11 28 -9 -3 -7 25 22 18 -6 -14 -15 -21 -8 -24 -13 -5 -16 -2 29 -12
right_child=27 2 4 8 17 6 7 12 -10 10 11 24 19 20 26 -17 -18 -19 -20 21 -22 -23 23 -25 -26 -27 -28 -29 -30 -31
leaf_value=0.0054493641379938229 -0.0032707503991816211 0.012081407010555267 -0.0032131065733446611 0.0073868738352014952 0.0052365829336435306 0.0016760994246089022 -0.002030264553047429 -0.00020523102178950632 -0.003127576806827596 -0.0041635510454280933 -0.0063999638396004845 -0.00037543161975583814 -0.0036849879941274958 0.010593755781111948 0.0057120755071137473 -0.0033830921122661008 -0.0038215929655067826 0.023657625137517849 -0.0057412178940083611 0.0046042276309295133 0.0016024444069041581 0.00050729282555126006 -0.00027653687163587694 0.0055636858251997805 -0.0041453258459417464 0.016436042779165768 -0.002016811614107882 0.0082716862157899505 -0.0037827063953548771 0.0018200202911954691
leaf_weight=277 5618 613 1206 289 1720 1551 1348 1973 190 2498 120 696 172 166 1651 65 1315 24 83 1760 244 588 646 301 1536 115 117 49 291 1517
leaf_count=277 5618 613 1206 289 1720 1551 1348 1973 190 2498 120 696 172 166 1651 65 1315 24 83 1760 244 588 646 301 1536 115 117 49 291 1517
internal_value=0 0.0140891 0.0357537 -0.0300674 0.025063 0.0142796 0.0225724 0.00270721 0.0974449 -0.0421843 -0.0484736 -0.0275784 0.0327754 0.186813 0.0710714 0.162262 -0.0347156 0.099597 0.0946245 0.0616501 0.104857 0.071565 -0.0108128 0.0315951 -0.0593953 0.199255 0.104012 -0.063419 0.00925527 0.0243491
internal_weight=0 23072 15478 7594 14455 12628 11422 8103 659 6935 6658 4160 4493 1023 3319 469 3610 1827 1803 2520 410 2348 2295 947 2232 404 1768 5667 1928 1637
internal_count=28739 23072 15478 7594 14455 12628 11422 8103 659 6935 6658 4160 4493 1023 3319 469 3610 1827 1803 2520 410 2348 2295 947 2232 404 1768 5667 1928 1637
shrinkage=0.05


Tree=9
num_leaves=31
num_cat=0
split_feature=22 1 41 34 36 36 41 37 24 5 41 40 37 36 11 35 36 3 37 36 41 17 41 3 39 41 36 17 13 35
split_gain=24.6665 20.5893 16.0292 10.5805 9.16361 6.29455 5.71713 5.28532 4.57427 4.18664 4.16293 5.00446 3.66813 3.51779 3.34019 3.32153 3.1572 3.06942 2.86183 3.51877 3.0263 2.82308 2.47314 3.27958 2.69742 2.45631 2.34598 2.214 2.94763 4.12699
threshold=1.5000000000000002 1.0000000180025095e-35 -0.13499999999999998 15.000000000000002 2.5000000000000004 2.5000000000000004 0.13500000000000004 6.5000000000000009 -1.0000000180025095e-35 1.0000000180025095e-35 -0.14499999999999999 0.33500000000000008 5.5000000000000009 1.0000000180025095e-35 1.0000000180025095e-35 1.0000000180025095e-35 3.5000000000000004 28.500000000000004 1.5000000000000002 1.0000000180025095e-35 -0.17499999999999996 0.10500000000000002 0.19500000000000003 26.500000000000004 1.5000000000000002 0.31500000000000006 4.5000000000000009 -1.0000000180025095e-35 1.0000000180025095e-35 1.0000000180025095e-35
decision_type=2 2 2 2 2 2 2 2 2 2 2 2 2 2 2 2 2 2 2 2 2 2 2 2 2 2 2 2 2 2
left_child=1 4 18 6 12 -5 8 22 13 -6 -11 25 -1 -4 -8 -15 -9 -10 19 -3 -21 -16 23 -7 -25 -12 -2 28 -19 -30
right_child=26 2 3 5 9 7 14 16 17 10 11 -13 -14 15 21 -17 -18 27 -20 20 -22 -23 -24 24 -26 -27 -28 -29 29 -31
leaf_value=-0.0032238012155749764 -0.0035444119448742174 -0.0026050467779261048 -0.0019425420878241906 -0.0013708147201582203 -0.00097640929752988823 0.00083042101284104683 0.0001444408477380358 -0.0057180494714814886 0.0044382580068359897 -0.0023960155369376324 0.0040789015682116247 -0.0079212982061446884 0.002768363749042099 0.011379197976835398 0.0049858745617362178 0.0039908813562982452 0.0011148077457450156 6.9346257205148357e-05 -0.0013390657778423415 -0.00046887890895980808 0.0044590149088921654 0.021733957131703695 -0.00092180576645025693 0.0035149038496512432 0.0072654639192359163 -0.0019698446447199039 -0.0010670856596410715 0.012575591966548125 0.015651550922500954 0.0066907715391029011
leaf_weight=3961 4450 451 201 1243 2991 504 696 208 403 469 1638 102 273 184 156 878 903 103 3001 514 791 30 238 973 945 187 1217 389 178 462
leaf_count=3961 4450 451 201 1243 2991 504 696 208 403 469 1638 102 273 184 156 878 903 103 3001 514 791 30 238 973 945 187 1217 389 178 462
internal_value=0 0.0133846 0.0386492 0.0641841 -0.0219374 0.0342976 0.104905 0.0546397 0.127034 0.00542319 0.0365708 0.0571345 -0.0567488 0.0824595 0.0347017 0.105419 -0.00328862 0.16371 -0.00801907 0.0240456 0.0503613 0.153744 0.0788346 0.088393 0.107256 0.0691822 -0.060248 0.190392 0.158392 0.18366
internal_weight=0 23072 13451 8694 9621 5014 3680 3771 2798 5387 2396 1927 4234 1263 882 1062 1111 1535 4757 1756 1305 186 2660 2422 1918 1825 5667 1132 743 640
internal_count=28739 23072 13451 8694 9621 5014 3680 3771 2798 5387 2396 1927 4234 1263 882 1062 1111 1535 4757 1756 1305 186 2660 2422 1918 1825 5667 1132 743 640
shrinkage=0.05


Tree=10
num_leaves=31
num_cat=0
split_feature=22 11 1 36 35 33 14 20 40 32 31 13 10 40 3 33 34 37 10 37 35 12 40 36 31 36 34 37 40 40
split_gain=24.1859 20.7516 14.7732 8.28491 17.4338 6.76955 5.55248 5.13518 5.04002 4.50076 4.21342 3.9628 3.94141 3.7725 3.75734 3.53299 3.48744 3.17457 3.06808 2.95508 2.85075 2.82478 2.68607 2.63663 2.43932 2.54788 2.99869 2.31275 2.17251 2.48887
threshold=1.5000000000000002 1.0000000180025095e-35 1.0000000180025095e-35 1.5000000000000002 1.0000000180025095e-35 12.500000000000002 1.0000000180025095e-35 -1.0000000180025095e-35 0.34500000000000003 1.0000000180025095e-35 1.0000000180025095e-35 1.0000000180025095e-35 0.015000000000000001 -0.094999999999999987 26.500000000000004 9.5000000000000018 15.000000000000002 1.0000000180025095e-35 -1.0000000180025095e-35 3.5000000000000004 1.0000000180025095e-35 1.0000000180025095e-35 0.23500000000000001 3.5000000000000004 -1.0000000180025095e-35 1.0000000180025095e-35 15.000000000000002 2.5000000000000004 0.12500000000000003 -0.094999999999999987
decision_type=2 2 2 2 2 2 2 2 2 2 2 2 2 2 2 2 2 2 2 2 2 2 2 2 2 2 2 2 2 2
left_child=1 2 6 7 18 10 24 -4 9 12 11 -3 -6 14 -13 -2 19 -9 -5 -15 23 -21 -17 -8 -1 -26 -27 -20 29 -14
right_child=15 5 3 4 8 -7 20 17 -10 -11 -12 13 28 16 -16 22 -18 -19 27 21 -22 -23 -24 -25 25 26 -28 -29 -30 -31
leaf_value=0.0040591974097948808 -0.0030356796675789031 0.00057240126641718697 -0.0017650601538232687 0.013649117272422363 0.002379126385939301 0.025042797406999079 0.0032346503982941311 -0.0092236903096948354 -0.0069091643983795808 0.022201889808531161 -0.0071937006168268829 0.020749165224177496 -0.0017282931435510637 0.0051271269261314164 0.0020565699830164897 0.02140543730213092 0.0048450762751690241 0.003010132930449418 0.013394753410391612 0.0030203017776143063 0.00019229505274255399 0.013719964154701137 -0.0011109268223797833 0.016806318753577295 -0.0038677724044886941 -2.841159058983057e-05 -0.0026799919154133246 0.0025195391848683358 -0.007603236491029914 0.0023635283851896533
leaf_weight=156 5577 437 2645 347 5576 41 150 56 169 27 74 28 859 228 674 26 722 999 73 73 2183 398 27 47 1784 1763 2698 148 99 655
leaf_count=156 5577 437 2645 347 5576 41 150 56 169 27 74 28 859 228 674 26 722 999 73 73 2183 398 27 47 1784 1763 2698 148 99 655
internal_value=0 0.0148208 0.00397852 0.0273193 0.0455062 0.0976435 -0.0269963 -0.0117729 0.0325216 0.0365195 0.0913673 0.0981672 0.034989 0.116018 0.0560429 -0.0582715 0.145646 0.0472151 0.214329 0.195995 0.0142426 0.241233 0.198697 0.129451 -0.0423296 -0.0454149 -0.0326416 0.122236 -0.00854573 0.000838934
internal_weight=0 23109 20434 11653 7953 2675 8781 3700 7385 7216 2634 2560 7189 2123 702 5630 1421 1055 568 699 2380 471 53 197 6401 6245 4461 221 1613 1514
internal_count=28739 23109 20434 11653 7953 2675 8781 3700 7385 7216 2634 2560 7189 2123 702 5630 1421 1055 568 699 2380 471 53 197 6401 6245 4461 221 1613 1514
shrinkage=0.05


Tree=11
num_leaves=31
num_cat=0
split_feature=22 41 1 24 40 14 33 30 11 41 41 24 33 20 3 41 11 41 36 21 35 37 41 38 40 38 40 3 38 40
split_gain=21.8277 20.6386 17.0395 8.22014 7.25275 5.50194 4.45105 4.42909 4.14531 3.95123 3.33273 3.20307 3.18853 3.14406 3.00326 2.97093 2.75259 2.49937 2.48772 4.55099 4.42945 3.56043 3.8835 3.10583 2.42418 2.37895 2.36857 2.44515 2.76533 2.36348
threshold=1.5000000000000002 -0.15499999999999997 1.0000000180025095e-35 3.5000000000000004 0.34500000000000003 1.0000000180025095e-35 3.5000000000000004 1.0000000180025095e-35 1.0000000180025095e-35 0.29500000000000004 0.13500000000000004 5.5000000000000009 9.5000000000000018 1.0000000180025095e-35 42.500000000000007 0.025000000000000005 1.0000000180025095e-35 -0.12499999999999999 1.5000000000000002 1.0000000180025095e-35 1.0000000180025095e-35 2.5000000000000004 -0.11499999999999998 1.5000000000000002 0.23500000000000001 1.5000000000000002 0.12500000000000003 28.500000000000004 1.0000000180025095e-35 -0.064999999999999988
decision_type=2 2 2 2 2 2 2 2 2 2 2 2 2 2 2 2 2 2 2 2 2 2 2 2 2 2 2 2 2 2
left_child=1 11 5 9 6 15 7 8 26 18 14 -1 -2 -13 -7 -3 -6 -16 19 -4 -20 -22 -23 -21 -14 -15 27 -5 -29 -10
right_child=12 2 3 4 16 10 -8 -9 29 -11 -12 13 24 25 17 -17 -18 -19 20 23 21 22 -24 -25 -26 -27 -28 28 -30 -31
leaf_value=-0.0023171592094268357 -0.0028838955173200449 -0.00022163523094994683 0.0082256916203076336 0.0030772632449136911 -0.0064342546470773712 0.0020521046218386972 0.019088609869542875 -0.0060735702006654308 0.0018408749556663086 -0.0023223340745011818 -0.0013364210890154163 -0.0012193394130258261 0.020335165239297428 0.002898007399288186 -0.0030013385375863631 -0.0027648490020918022 0.0066337122198413395 0.011238251009418922 0.0084199431416748464 -0.0014376943226792223 0.0050550930018248581 -0.0025947580528766037 0.0022565629677336867 0.0098919559852220125 -0.0010553801501238789 0.014014788802529946 0.0011306117381061521 -0.0042259622489412623 0.00671951694795436 0.01029442424669383
leaf_weight=5076 5577 2765 158 941 192 1558 57 88 98 542 676 539 26 228 38 1964 51 163 318 1103 892 494 2501 64 27 61 444 60 1509 529
leaf_count=5076 5577 2765 158 941 192 1558 57 88 98 542 676 539 26 228 38 1964 51 163 318 1103 892 494 2501 64 27 61 444 60 1509 529
internal_value=0 0.0140797 0.0315861 0.0581682 0.0935579 -0.00567125 0.104475 0.100167 0.105613 0.0350356 0.032949 -0.0369359 -0.055358 0.0207349 0.0558836 -0.0255571 -0.0738319 0.170924 0.0430217 0.00523725 0.0549276 0.0456444 0.0291276 -0.0163272 0.188762 0.104889 0.0899383 0.101848 0.126019 0.179463
internal_weight=0 23109 17205 10041 3969 7164 3726 3669 3581 6072 2435 5904 5630 828 1759 4729 243 201 5530 1325 4205 3887 2995 1167 53 289 2954 2510 1569 627
internal_count=28739 23109 17205 10041 3969 7164 3726 3669 3581 6072 2435 5904 5630 828 1759 4729 243 201 5530 1325 4205 3887 2995 1167 53 289 2954 2510 1569 627
shrinkage=0.05


Tree=12
num_leaves=31
num_cat=0
split_feature=1 41 22 11 41 22 14 10 3 33 34 40 24 36 35 24 41 41 3 40 37 30 17 17 24 33 41 34 41 13
split_gain=19.796 13.3592 13.247 7.51709 6.97403 6.03871 6.8558 5.55292 4.91832 4.21146 3.63462 3.49724 3.40869 3.31097 3.37978 2.96889 2.92768 3.73779 3.31518 2.723 2.6339 2.45628 2.38984 3.23928 2.37906 2.37527 2.34259 2.34152 2.64708 2.34006
threshold=1.0000000180025095e-35 -0.15499999999999997 1.5000000000000002 1.0000000180025095e-35 0.13500000000000004 1.5000000000000002 1.0000000180025095e-35 0.015000000000000001 30.500000000000004 12.500000000000002 15.000000000000002 -0.054999999999999993 3.5000000000000004 1.5000000000000002 1.0000000180025095e-35 5.5000000000000009 -0.14499999999999999 0.13500000000000004 42.500000000000007 0.20500000000000004 2.5000000000000004 1.0000000180025095e-35 -0.044999999999999991 0.75500000000000012 5.5000000000000009 9.5000000000000018 -0.17499999999999996 15.000000000000002 0.025000000000000005 1.0000000180025095e-35
decision_type=2 2 2 2 2 2 2 2 2 2 2 2 2 2 2 2 2 2 2 2 2 2 2 2 2 2 2 2 2 2
left_child=5 24 3 4 7 6 26 8 13 10 11 -5 -9 -3 -15 22 -8 18 -18 29 -16 -12 -10 -24 -2 -4 -1 28 -28 -14
right_child=1 2 25 9 -6 -7 16 12 15 -11 21 -13 19 14 20 -17 17 -19 -20 -21 -22 -23 23 -25 -26 -27 27 -29 -30 -31
leaf_value=-0.0034646722016274363 -0.0018372009919079097 -0.00072450739972652195 -0.0015282149574663861 0.0035472626345498222 -0.00088520171830630849 -0.0036578778280376319 -0.002600868265519197 -0.0017492276054757241 0.0037666044986726329 0.026241840302944186 0.0041133303396721022 0.01101312879472971 -0.0042634891422644056 0.0096091601640937181 0.0051228009647047018 0.0093296090877333353 0.0023477643088483588 -0.0012696001270907165 0.0094303203966989314 -0.0096149542583869058 0.0014142000715748795 -0.0075055232737213373 0.011263167929525177 -0.0013968870160169901 0.0016609236017792626 0.011236943143445094 0.00140205616573142 -0.0022457706483942886 -0.0019103001262445272 0.0053600705397535749
leaf_weight=1585 3478 706 2416 245 1535 2571 435 917 1620 25 869 436 73 188 710 387 1479 676 186 39 1470 48 240 64 565 37 1303 2844 1123 469
leaf_count=1585 3478 706 2416 245 1535 2571 435 917 1620 25 869 436 73 188 710 387 1479 676 186 39 1470 48 240 64 565 37 1303 2844 1123 469
internal_value=0 0.0229974 0.0391657 0.0552598 0.0432457 -0.0301008 -0.0186068 0.0568383 0.0718191 0.117573 0.111202 0.166543 0.00298549 0.0456154 0.0635353 0.106674 0.0233196 0.0373185 0.0627794 0.0629141 0.0524409 0.0701029 0.0905994 0.171958 -0.0269669 -0.0267134 -0.0355853 -0.0254473 -0.0026248 0.0812782
internal_weight=0 16537 12494 10041 8418 12202 9631 6883 5385 1623 1598 681 1498 3074 2368 2311 2776 2341 1665 581 2180 917 1924 304 4043 2453 6855 5270 2426 542
internal_count=28739 16537 12494 10041 8418 12202 9631 6883 5385 1623 1598 681 1498 3074 2368 2311 2776 2341 1665 581 2180 917 1924 304 4043 2453 6855 5270 2426 542
shrinkage=0.05


Tree=13
num_leaves=31
num_cat=0
split_feature=22 41 1 11 20 10 14 33 34 35 33 40 41 33 13 37 34 36 35 37 36 41 34 41 24 30 24 41 34 40
split_gain=17.9162 16.7898 14.0517 7.47395 5.78658 6.12347 4.68202 3.83853 3.52391 3.48778 2.91478 2.76762 2.69878 2.6496 2.61446 2.42186 2.89403 2.33461 6.08464 2.37112 2.96474 2.7534 2.70943 2.50353 2.28751 2.23432 2.23177 2.16605 2.6629 2.15344
threshold=1.5000000000000002 -0.17499999999999996 1.0000000180025095e-35 1.0000000180025095e-35 -1.0000000180025095e-35 1.0000000180025095e-35 1.0000000180025095e-35 12.500000000000002 15.000000000000002 1.0000000180025095e-35 3.5000000000000004 -0.054999999999999993 0.30500000000000005 9.5000000000000018 1.0000000180025095e-35 1.0000000180025095e-35 15.000000000000002 1.5000000000000002 1.0000000180025095e-35 2.5000000000000004 2.5000000000000004 -0.11499999999999998 27.500000000000004 -0.094999999999999987 3.5000000000000004 1.0000000180025095e-35 5.5000000000000009 0.025000000000000005 15.000000000000002 0.23500000000000001
decision_type=2 2 2 2 2 2 2 2 2 2 2 2 2 2 2 2 2 2 2 2 2 2 2 2 2 2 2 2 2 2
left_child=1 26 6 4 5 10 27 8 11 -8 12 -5 17 -2 -7 -6 -17 -4 -19 23 -21 -22 -23 -20 -18 -10 -1 28 -3 -15
right_child=13 2 3 7 15 14 9 -9 25 -11 -12 -13 -14 29 -16 16 24 18 19 20 21 22 -24 -25 -26 -27 -28 -29 -30 -31
leaf_value=-0.0027645161514374614 -0.0026134840140788172 0.0013319534453308227 0.00019887112385156202 0.0037679158930861672 -0.0095703105357560249 -0.0046614586262502403 0.0079483216945478267 0.024929748356342318 0.0037739645677349501 0.00087546497072563524 0.021124450750648976 0.010284964158726494 -0.0019413669175820842 0.018889550692760028 -0.00026702456157861741 0.0060382879331332302 -0.0016052036627617174 0.010141713095500189 0.0031633530574196331 -0.006236300899201081 -0.0017927811585548448 0.0031693601155407015 -0.0076520327975352605 0.009585537523665328 0.0035428120861583064 -0.0071887740827336613 0.00039833252367220428 -0.0025239089701150196 -0.0015719768182521931 -0.001271160360839632
leaf_weight=3458 5577 1303 980 258 33 428 188 25 903 2392 20 442 399 26 1618 1071 263 272 787 119 410 1609 60 188 1202 49 665 1964 2003 27
leaf_count=3458 5577 1303 980 258 33 428 188 25 903 2392 20 442 399 26 1618 1071 263 272 787 119 410 1609 60 188 1202 49 665 1964 2003 27
internal_value=0 0.0127543 0.0253153 0.0481564 0.0372481 0.0221452 -0.00708712 0.109683 0.103798 0.027817 0.0415202 0.157659 0.0399407 -0.0501549 -0.0237258 0.0777538 0.0812563 0.0470432 0.0592941 0.0469893 0.0287827 0.0375694 0.0556067 0.0880336 0.0523726 0.0641941 -0.0450876 -0.0241749 -0.00854891 0.17238
internal_weight=0 23109 18986 11136 9459 6890 7850 1677 1652 2580 4844 700 4824 5630 2046 2569 2536 4425 3445 3173 2198 2079 1669 975 1465 952 4123 5270 3306 53
internal_count=28739 23109 18986 11136 9459 6890 7850 1677 1652 2580 4844 700 4824 5630 2046 2569 2536 4425 3445 3173 2198 2079 1669 975 1465 952 4123 5270 3306 53
shrinkage=0.05


Tree=14
num_leaves=31
num_cat=0
split_feature=1 41 22 34 36 37 22 41 13 40 41 14 11 21 40 33 31 3 35 10 37 36 24 14 36 33 13 34 35 41
split_gain=16.4974 11.073 10.5052 6.51034 5.45808 5.88964 5.24917 5.3143 5.00896 5.01211 4.87666 5.01076 4.36144 3.62583 3.604 3.54236 3.01411 2.93368 2.84985 2.55684 2.77528 2.8531 3.09602 2.44346 2.3035 2.2467 2.10637 2.06899 3.04543 2.04681
threshold=1.0000000180025095e-35 -0.15499999999999997 1.5000000000000002 15.000000000000002 1.5000000000000002 2.5000000000000004 2.5000000000000004 -0.14499999999999999 1.0000000180025095e-35 -0.074999999999999997 0.13500000000000004 1.0000000180025095e-35 1.0000000180025095e-35 1.0000000180025095e-35 0.26500000000000007 10.500000000000002 -1.0000000180025095e-35 41.500000000000007 1.0000000180025095e-35 0.015000000000000001 6.5000000000000009 3.5000000000000004 3.5000000000000004 1.0000000180025095e-35 4.5000000000000009 5.5000000000000009 1.0000000180025095e-35 15.000000000000002 1.0000000180025095e-35 -0.014999999999999998
decision_type=2 2 2 2 2 2 2 2 2 2 2 2 2 2 2 2 2 2 2 2 2 2 2 2 2 2 2 2 2 2
left_child=6 -2 3 8 -5 18 7 -1 13 23 11 16 14 -3 -11 19 -9 27 -6 20 -7 -22 -23 29 -4 -12 -18 28 -13 -10
right_child=1 2 24 4 5 15 -8 10 9 12 25 17 -14 -15 -16 -17 26 -19 -20 -21 21 22 -24 -25 -26 -27 -28 -29 -30 -31
leaf_value=-0.002729806429661882 -0.0012249615551102673 0.0065377646538077802 -0.0021519859136887643 -0.0018303139489356556 0.013759162679485893 0.0027065513717337243 -0.0042092548134840197 0.0083955683387242821 0.005922828919144087 0.0061362254728056214 -0.0025112619867749299 0.012467592150311579 0.011097463568051656 -0.0015180980969788666 -0.0022916343670787544 0.019472624648075837 -0.0033317773189594059 0.0075915301859143221 0.0043915904372146255 -0.0018094531444497516 -0.0060017170164829645 -0.0011783649768258733 0.0060926508658857492 0.00047317906856178879 0.0011901221997540551 0.013551882688294759 -0.00023075084858084573 0.00016061164979356218 0.0025740905951208144 0.00046189538335083896
leaf_weight=3130 4043 183 1716 1052 87 1899 1440 91 651 1264 2067 88 420 590 141 26 676 253 1216 678 195 539 201 666 737 22 2883 882 670 233
leaf_count=3130 4043 183 1716 1052 87 1899 1440 91 651 1264 2067 88 420 590 141 26 676 253 1216 678 195 539 201 666 737 22 2883 882 670 233
internal_value=0 0.0209895 0.0357094 0.0500415 0.0286784 0.0428655 -0.0274835 -0.0198966 0.0803918 0.0970224 -0.0056658 0.0098523 0.132537 0.00778093 0.105809 0.021698 -0.0118002 0.0516017 0.100341 0.0189754 0.0321728 -0.0124246 0.015932 0.0552067 -0.0229571 -0.0468419 -0.0163953 0.0361396 0.0744535 0.0896693
internal_weight=0 16537 12494 10041 5893 4841 12202 10762 4148 3375 7632 5543 1825 773 1405 3538 3650 1893 1303 3512 2834 935 740 1550 2453 2089 3559 1640 758 884
internal_count=28739 16537 12494 10041 5893 4841 12202 10762 4148 3375 7632 5543 1825 773 1405 3538 3650 1893 1303 3512 2834 935 740 1550 2453 2089 3559 1640 758 884
shrinkage=0.05


Tree=15
num_leaves=31
num_cat=0
split_feature=1 22 41 12 41 11 41 14 22 3 31 10 33 41 34 40 40 3 41 30 41 41 24 34 41 31 21 35 25 40
split_gain=14.7335 10.706 8.94466 6.60328 4.84306 4.77351 4.90987 4.33738 4.06661 3.59051 2.52431 2.45371 2.63476 2.3717 2.34155 2.29316 2.62488 2.64223 2.28098 2.19339 1.99138 2.61076 1.95252 1.99274 1.92604 2.11502 1.91259 1.87625 1.87599 1.83305
threshold=1.0000000180025095e-35 1.5000000000000002 -0.17499999999999996 1.0000000180025095e-35 0.28500000000000009 1.0000000180025095e-35 0.045000000000000005 1.0000000180025095e-35 1.5000000000000002 28.500000000000004 -1.0000000180025095e-35 0.015000000000000001 14.500000000000002 -0.105 15.000000000000002 -0.084999999999999978 0.26500000000000007 29.500000000000004 0.13500000000000004 1.0000000180025095e-35 -0.17499999999999996 0.045000000000000005 3.5000000000000004 15.000000000000002 -0.105 2.5000000000000004 5.5000000000000009 1.0000000180025095e-35 2.5000000000000004 -0.064999999999999988
decision_type=2 2 2 2 2 2 2 2 2 2 2 2 2 2 2 2 2 2 2 2 2 2 2 2 2 2 2 2 2 2
left_child=7 2 -2 4 14 6 9 10 15 28 -1 12 24 -7 -4 18 17 -17 -9 -8 -12 -22 -15 -24 29 -26 -3 -16 -5 -11
right_child=1 26 3 5 -6 13 19 8 -10 11 20 -13 -14 22 27 16 -18 -19 -20 -21 21 -23 23 -25 25 -27 -28 -29 -30 -31
leaf_value=0.0043612069075370762 -0.0012644331813988529 -0.002118011552487916 0.0026194448574658551 0.0021919007413775584 -0.0043530758848990677 0.00082673225756529933 0.00071405567691038268 0.00065781207093877983 -0.0026240018440172978 0.0055448622672956711 -0.0035034615511757247 0.0023454404683618604 0.024107687026262287 0.0046985844571545065 -0.0024847338321588694 1.878408334588492e-05 -0.0030379132057229679 0.0051705779240248688 -0.0042452268910651309 -0.0071594991027674783 -0.00087753021752061508 -0.0029871247975797786 0.012079259595514215 0.0059314482794033258 0.0082201735690949924 -0.0075360573828220367 0.0021162468902135301 0.00093628462132822965 -0.0048073758127041236 -0.00016303231629232568
leaf_weight=154 2321 2779 1824 1357 423 182 1499 1228 1043 526 1932 632 20 473 496 372 180 752 294 94 3918 2344 274 254 668 22 295 2088 103 192
leaf_count=154 2321 2779 1824 1357 423 182 1499 1228 1043 526 1932 632 20 473 496 372 180 752 294 94 3918 2344 274 254 668 22 295 2088 103 192
internal_value=0 0.0190092 0.0311796 0.0429584 0.0151482 0.0642976 0.0510529 -0.0267918 0.000885503 0.0718994 -0.0396192 0.0987869 0.121747 0.121542 0.0249565 0.0205813 0.0513564 0.0693107 -0.00578585 0.00498903 -0.0420031 -0.0333439 0.140634 0.182436 0.116628 0.154356 -0.0342333 0.00559237 0.0339623 0.0803703
internal_weight=0 16522 13448 11127 4831 6296 5113 12217 3869 3520 8348 2060 1428 1183 4408 2826 1304 1124 1522 1593 8194 6262 1001 528 1408 690 3074 2584 1460 718
internal_count=28739 16522 13448 11127 4831 6296 5113 12217 3869 3520 8348 2060 1428 1183 4408 2826 1304 1124 1522 1593 8194 6262 1001 528 1408 690 3074 2584 1460 718
shrinkage=0.05


Tree=16
num_leaves=31
num_cat=0
split_feature=22 11 41 41 1 33 13 33 24 24 40 10 24 31 40 13 37 41 24 3 41 13 37 41 19 20 3 41 18 3
split_gain=13.3702 13.6854 9.99005 9.89578 5.50848 3.66557 3.10422 3.3484 3.04363 2.93596 4.31529 2.75396 2.68114 2.56628 2.36967 2.059 2.08546 3.11948 3.1904 3.44397 2.01475 3.59837 2.35755 2.2252 2.01997 2.00564 1.93943 2.41829 1.83527 1.80491
threshold=1.5000000000000002 1.0000000180025095e-35 -0.17499999999999996 0.045000000000000005 1.0000000180025095e-35 30.500000000000004 1.0000000180025095e-35 12.500000000000002 3.5000000000000004 -1.0000000180025095e-35 0.35500000000000004 1.0000000180025095e-35 5.5000000000000009 -1.0000000180025095e-35 0.42500000000000004 1.0000000180025095e-35 1.5000000000000002 -0.14499999999999999 3.5000000000000004 29.500000000000004 -0.054999999999999993 1.0000000180025095e-35 2.5000000000000004 -0.14499999999999999 1.5000000000000002 1.0000000180025095e-35 31.500000000000004 -0.094999999999999987 1.0000000180025095e-35 50.500000000000007
decision_type=2 2 2 2 2 2 2 2 2 2 2 2 2 2 2 2 2 2 2 2 2 2 2 2 2 2 2 2 2 2
left_child=1 2 -1 4 13 8 -3 12 11 -5 -11 26 -8 -4 29 -15 -17 -18 -19 -20 22 -22 28 24 -24 -21 -6 -28 -10 -14
right_child=-2 6 3 9 5 -7 7 -9 20 10 -12 -13 14 15 -16 16 17 18 19 25 21 -23 23 -25 -26 -27 27 -29 -30 -31
leaf_value=-0.0022153119087219239 -0.0022024969070379443 8.5878909557266588e-05 0.0084988279372788557 -0.0025755038811305984 0.0013224808727491774 0.022250667667907217 0.003357965047542866 0.020947357435380259 0.0018879074983743805 0.00064461997475501361 -0.0049573113347526803 -0.00061077811164550759 0.0073283789093157208 -0.002703206427395344 -0.004925361920047451 0.003285020286706011 -0.0033659227961014195 -0.00041040069663046859 0.0001538210546041464 0.0028757909902874731 -0.0057050695573842083 0.0079796457890121426 -0.0069405780732631683 0.0021978415739554238 0.005449388366799022 0.010442739880333346 0.0020859754623986093 0.0072253155191579176 0.0056802280067245747 0.018239126081873731
leaf_weight=3875 5648 452 89 2260 1942 23 1625 31 519 2409 401 1203 502 640 37 526 601 2046 385 161 54 435 140 664 43 192 595 372 828 41
leaf_count=3875 5648 452 89 2260 1942 23 1625 31 519 2409 401 1203 502 640 37 526 601 2046 385 161 54 435 140 664 43 192 595 372 828 41
internal_value=0 0.0102296 0.00139322 0.0121075 0.0283841 0.0464722 0.0773013 0.0925803 0.0451232 -0.024677 -0.00309603 0.0280276 0.0879919 0.00180558 0.146359 -0.0014832 0.0071212 -0.00198151 0.0121232 0.0684886 0.0713241 0.129369 0.0583871 0.0170486 -0.0805855 0.139831 0.0446699 0.0812611 0.0843809 0.163044
internal_weight=0 23091 20403 16528 11458 6818 2688 2236 6795 5070 2810 4112 2205 4640 580 4551 3911 3385 2784 738 2683 489 2194 847 183 353 2909 967 1347 543
internal_count=28739 23091 20403 16528 11458 6818 2688 2236 6795 5070 2810 4112 2205 4640 580 4551 3911 3385 2784 738 2683 489 2194 847 183 353 2909 967 1347 543
shrinkage=0.05


Tree=17
num_leaves=31
num_cat=0
split_feature=1 22 11 20 10 36 22 35 36 35 31 24 40 40 3 36 40 10 34 37 3 34 3 34 24 40 17 3 24 40
split_gain=12.5227 8.64832 7.03642 5.1513 4.76528 4.44186 4.3587 3.96674 3.03457 5.18825 2.43227 2.42823 2.87547 2.33142 2.50671 2.31905 2.29838 2.23764 2.22386 2.9078 1.86253 1.83648 1.9192 1.80644 1.74306 1.66995 2.21613 2.08304 1.6349 1.58889
threshold=1.0000000180025095e-35 1.5000000000000002 1.0000000180025095e-35 -1.0000000180025095e-35 1.0000000180025095e-35 2.5000000000000004 1.5000000000000002 1.0000000180025095e-35 1.5000000000000002 1.0000000180025095e-35 -1.0000000180025095e-35 3.5000000000000004 0.35500000000000004 -0.074999999999999997 30.500000000000004 4.5000000000000009 0.43500000000000005 -1.0000000180025095e-35 15.000000000000002 1.0000000180025095e-35 25.500000000000004 21.500000000000004 43.500000000000007 15.000000000000002 5.5000000000000009 0.075000000000000025 0.69500000000000006 39.500000000000007 5.5000000000000009 -0.094999999999999987
decision_type=2 2 2 2 2 2 2 2 2 2 2 2 2 2 2 2 2 2 2 2 2 2 2 2 2 2 2 2 2 2
left_child=5 2 3 4 8 10 7 -7 -2 17 -1 23 13 -13 -15 -3 21 29 19 -5 -4 22 -11 -9 -22 26 -16 -27 -21 -10
right_child=1 15 20 18 -6 6 -8 11 9 16 -12 12 -14 14 25 -17 -18 -19 -20 28 24 -23 -24 -25 -26 27 -28 -29 -30 -31
leaf_value=0.0038960304449905054 -0.00066700198014692073 -0.00229199323051733 0.016648469592134157 -0.0064714698541548949 -0.0015210478124805752 0.0062957302910777238 -0.0028493045306273198 0.00061027903800040461 0.0058952131393280906 0.0013860467455115272 -0.0024785001430287887 -0.0010560897863530494 -0.0055883840078443997 0.00053291591570099855 0.009312899125547244 0.00091436683370541515 -0.009310869574546814 -0.0011347994924737858 0.0014943849526938852 0.0036685801762912779 0.0031320969664098649 -0.0048556744313991828 0.006255531952131627 -0.0016854284082732339 0.0066003923535346981 0.00068289540453344341 -0.0062021609246730811 0.010925690415832731 0.0077939745807839985 0.014074682536744333
leaf_weight=154 1730 2330 30 62 2496 260 1414 1441 110 3438 5289 385 127 421 290 744 50 52 1834 1066 1315 111 215 2114 500 234 25 63 310 129
leaf_count=154 1730 2330 30 62 2496 260 1414 1441 110 3438 5289 385 127 421 290 744 50 52 1834 1066 1315 111 215 2114 500 234 25 63 310 129
internal_value=0 0.0175341 0.0284726 0.0193512 0.00614643 -0.0246911 -0.00759896 0.00542965 0.0217886 0.0365931 -0.0459629 -0.000712716 0.0323863 0.0452971 0.0700515 -0.0303192 0.0267732 0.165299 0.0529726 0.0824146 0.0858359 0.0296025 0.0334529 -0.0150975 0.081751 0.110909 0.161631 0.0571122 0.0919599 0.206201
internal_weight=0 16522 13448 11603 8331 12217 6774 5360 5835 4105 5443 5100 1545 1418 1033 3074 3814 291 3272 1438 1845 3764 3653 3555 1815 612 315 297 1376 239
internal_count=28739 16522 13448 11603 8331 12217 6774 5360 5835 4105 5443 5100 1545 1418 1033 3074 3814 291 3272 1438 1845 3764 3653 3555 1815 612 315 297 1376 239
shrinkage=0.05


Tree=18
num_leaves=31
num_cat=0
split_feature=22 41 11 41 34 37 37 41 37 40 13 35 34 13 24 35 37 31 24 41 42 41 41 37 40 40 39 24 40 10
split_gain=10.915 11.4752 8.95828 8.80318 5.58607 4.24266 3.50325 3.38399 2.92275 2.89695 6.38941 3.11274 2.82152 2.67453 2.6409 3.08122 2.60238 2.51089 2.37348 3.19132 2.03299 2.68847 2.10119 2.02124 1.89171 1.87062 1.83511 2.34379 2.80773 2.14213
threshold=1.5000000000000002 -0.17499999999999996 1.0000000180025095e-35 0.045000000000000005 15.000000000000002 1.0000000180025095e-35 1.5000000000000002 -0.13499999999999998 1.5000000000000002 -0.12499999999999999 1.0000000180025095e-35 1.0000000180025095e-35 15.000000000000002 1.0000000180025095e-35 5.5000000000000009 1.0000000180025095e-35 5.5000000000000009 -1.0000000180025095e-35 3.5000000000000004 -0.14499999999999999 15.000000000000002 0.12500000000000003 -0.105 2.5000000000000004 0.085000000000000006 0.42500000000000004 1.5000000000000002 -1.0000000180025095e-35 0.26500000000000007 -0.014999999999999998
decision_type=2 2 2 2 2 2 2 2 2 2 2 2 2 2 2 2 2 2 2 2 2 2 2 2 2 2 2 2 2 2
left_child=1 -1 3 4 5 -3 -6 8 -7 17 -11 -12 16 -4 20 -16 -5 -9 -8 -20 21 22 -15 -24 -25 -17 27 -18 29 -29
right_child=-2 2 13 12 6 7 18 9 -10 10 11 -13 -14 14 15 25 26 -19 19 -21 -22 -23 23 24 -26 -27 -28 28 -30 -31
leaf_value=-0.0019424338563255067 -0.0019899991474169763 -0.0057741578746508884 -0.00018990157964479857 -0.0013608662821177116 0.0030019993676576795 0.0035618247386688985 -0.00075413819232909634 0.0076476790497650455 -0.0015978119395638408 -0.0038031091086963226 0.010809539237590595 0.0051827359188159842 -0.0023665613690569145 -0.00094338191832814907 0.013871803735014347 0.0061905136646388421 -0.0010001570952736683 0.0016686960381105773 -0.0024677746906947864 0.002474958717084458 0.0082583903403658631 -0.0010139460512305384 -0.00029693649246774869 0.0069099206087680975 -0.0031827287375926975 -0.006977907568216324 -0.0015408810150499145 0.011256614758533503 -0.002869059459159249 0.0040352547297189982
leaf_weight=4084 5648 143 362 1487 1119 480 3933 199 641 169 321 1049 2512 175 139 385 239 1493 418 1493 190 354 145 650 50 29 288 159 95 290
leaf_count=4084 5648 143 362 1487 1119 480 3933 199 641 169 321 1049 2512 175 139 385 239 1493 418 1493 190 354 145 650 50 29 288 159 95 290
internal_value=0 0.0092432 0.0195766 0.0111688 0.0265206 0.0540016 0.00878011 0.0595706 0.0122298 0.0759955 0.107392 0.130023 -0.0235257 0.0756333 0.0892158 0.148614 -0.000148198 0.047438 -0.00103505 0.0278763 0.0682138 0.0548068 0.080866 0.101521 0.12378 0.105362 0.0374352 0.0625397 0.0988039 0.13185
internal_weight=0 23091 19007 16528 11458 4495 6963 4352 1121 3231 1539 1370 5070 2479 2117 553 2558 1692 5844 1911 1564 1374 1020 845 700 414 1071 783 544 449
internal_count=28739 23091 19007 16528 11458 4495 6963 4352 1121 3231 1539 1370 5070 2479 2117 553 2558 1692 5844 1911 1564 1374 1020 845 700 414 1071 783 544 449
shrinkage=0.05


Tree=19
num_leaves=31
num_cat=0
split_feature=36 35 41 41 37 36 21 11 34 13 34 37 36 24 12 7 33 41 3 37 10 30 41 36 36 36 24 41 41 41
split_gain=10.4155 15.3522 7.1664 8.41556 6.69247 7.31883 5.24856 4.4687 3.99093 3.94114 5.36717 6.44581 5.42808 3.12454 2.90234 2.64541 2.64251 2.53113 2.52083 2.46513 2.40038 2.25581 2.15023 2.04368 1.97812 1.96986 1.96339 1.87228 1.9029 1.82886
threshold=1.5000000000000002 1.0000000180025095e-35 0.28500000000000009 -0.17499999999999996 2.5000000000000004 3.5000000000000004 1.0000000180025095e-35 1.0000000180025095e-35 15.000000000000002 1.0000000180025095e-35 15.000000000000002 3.5000000000000004 1.0000000180025095e-35 4.5000000000000009 1.0000000180025095e-35 1.0000000180025095e-35 15.500000000000002 -0.074999999999999997 41.500000000000007 1.5000000000000002 -0.014999999999999998 1.0000000180025095e-35 -0.15499999999999997 3.5000000000000004 2.5000000000000004 1.0000000180025095e-35 5.5000000000000009 0.045000000000000005 -0.13499999999999998 -0.105
decision_type=2 2 2 2 2 2 2 2 2 2 2 2 2 2 2 2 2 2 2 2 2 2 2 2 2 2 2 2 2 2
left_child=6 13 3 -3 15 7 -1 18 -7 -8 11 -11 17 -2 -15 22 21 20 24 25 -13 29 -5 -24 -6 -12 -19 28 -9 -10
right_child=1 2 -4 4 5 8 9 27 16 10 19 12 -14 14 -16 -17 -18 26 -20 -21 -22 -23 23 -25 -26 -27 -28 -29 -30 -31
leaf_value=0.0044491450277401165 0.0042045678721358446 -0.00300798436827873 -0.002295584380114611 0.00049956169648048205 -0.0051132418469995514 0.0032177136720706865 -0.0028716333928990039 -0.0055038022498289747 -0.0012607252479885981 -0.00044856307072577508 -0.00381107230281606 0.011332618399308278 -0.0010398555690279375 -0.0019493310579231809 0.010964978044641388 0.018466124904376487 0.01442971670014017 0.0087738113516363618 0.0022960035737542156 -0.0030717811001942001 -0.0013065444033467368 -0.0037480358909440523 0.0039606482188151585 0.00018028313191807642 -0.001628659247127298 0.00187750783299863 0.018344505166306216 -0.00026144346659952175 0.0078849526429953781 0.0014213136497684227
leaf_weight=374 755 1408 2328 819 468 2215 3650 30 834 2078 213 65 208 49 388 27 34 145 362 2205 89 298 2436 419 3139 533 85 183 230 2672
leaf_count=374 755 1408 2328 819 468 2215 3650 30 834 2078 213 65 208 49 388 27 34 145 362 2205 89 298 2436 419 3139 533 85 183 230 2672
internal_value=0 0.0131549 0.00583807 0.0135736 0.0209022 0.00797633 -0.027161 -0.0229992 0.0305542 -0.0318463 -0.0152318 0.0172541 0.109309 0.123043 0.190338 0.0574515 0.0110474 0.179782 -0.0336317 -0.0446244 0.0805633 0.00856672 0.0551596 0.0681168 -0.0416155 0.00506577 0.246216 0.072261 0.126802 0.0156663
internal_weight=0 19094 17902 15574 14166 10465 9645 4412 6053 9271 5621 2670 592 1192 437 3701 3838 384 3969 2951 154 3804 3674 2855 3607 746 230 443 260 3506
internal_count=28739 19094 17902 15574 14166 10465 9645 4412 6053 9271 5621 2670 592 1192 437 3701 3838 384 3969 2951 154 3804 3674 2855 3607 746 230 443 260 3506
shrinkage=0.05


end of trees

feature importances:
f_42=101
f_37=62
f_38=52
f_25=40
f_41=40
f_35=36
f_36=30
f_12=25
f_23=25
f_14=23
f_34=22
f_4=20
f_2=19
f_11=14
f_22=11
f_18=10
f_32=10
f_15=9
f_13=8
f_31=7
f_40=7
f_21=5
f_1=4
f_6=4
f_33=4
f_39=3
f_7=2
f_26=2
f_5=1
f_8=1
f_19=1
f_20=1
f_43=1

parameters:
[boosting: gbdt]
[objective: regression]
[metric: auc,l2]
[tree_learner: serial]
[device_type: cpu]
[data: ]
[valid: ]
[num_iterations: 100]
[learning_rate: 0.05]
[num_leaves: 31]
[num_threads: 0]
[max_depth: -1]
[min_data_in_leaf: 20]
[min_sum_hessian_in_leaf: 0.001]
[bagging_fraction: 0.8]
[pos_bagging_fraction: 1]
[neg_bagging_fraction: 1]
[bagging_freq: 5]
[bagging_seed: 3]
[feature_fraction: 0.9]
[feature_fraction_bynode: 1]
[feature_fraction_seed: 2]
[early_stopping_round: 0]
[first_metric_only: 0]
[max_delta_step: 0]
[lambda_l1: 0]
[lambda_l2: 0]
[min_gain_to_split: 0]
[drop_rate: 0.1]
[max_drop: 50]
[skip_drop: 0.5]
[xgboost_dart_mode: 0]
[uniform_drop: 0]
[drop_seed: 4]
[top_rate: 0.2]
[other_rate: 0.1]
[min_data_per_group: 100]
[max_cat_threshold: 32]
[cat_l2: 10]
[cat_smooth: 10]
[max_cat_to_onehot: 4]
[top_k: 20]
[monotone_constraints: ]
[feature_contri: ]
[forcedsplits_filename: ]
[forcedbins_filename: ]
[refit_decay_rate: 0.9]
[cegb_tradeoff: 1]
[cegb_penalty_split: 0]
[cegb_penalty_feature_lazy: ]
[cegb_penalty_feature_coupled: ]
[verbosity: 1]
[max_bin: 255]
[max_bin_by_feature: ]
[min_data_in_bin: 3]
[bin_construct_sample_cnt: 200000]
[histogram_pool_size: -1]
[data_random_seed: 1]
[output_model: LightGBM_model.txt]
[snapshot_freq: -1]
[input_model: ]
[output_result: LightGBM_predict_result.txt]
[initscore_filename: ]
[valid_data_initscores: ]
[pre_partition: 0]
[enable_bundle: 1]
[max_conflict_rate: 0]
[is_enable_sparse: 1]
[sparse_threshold: 0.8]
[use_missing: 1]
[zero_as_missing: 0]
[two_round: 0]
[save_binary: 0]
[header: 0]
[label_column: ]
[weight_column: ]
[group_column: ]
[ignore_column: ]
[categorical_feature: ]
[predict_raw_score: 0]
[predict_leaf_index: 0]
[predict_contrib: 0]
[num_iteration_predict: -1]
[pred_early_stop: 0]
[pred_early_stop_freq: 10]
[pred_early_stop_margin: 10]
[convert_model_language: ]
[convert_model: gbdt_prediction.cpp]
[num_class: 1]
[is_unbalance: 0]
[scale_pos_weight: 1]
[sigmoid: 1]
[boost_from_average: 1]
[reg_sqrt: 0]
[alpha: 0.9]
[fair_c: 1]
[poisson_max_delta_step: 0.7]
[tweedie_variance_power: 1.5]
[max_position: 20]
[lambdamart_norm: 1]
[label_gain: ]
[metric_freq: 1]
[is_provide_training_metric: 0]
[eval_at: ]
[multi_error_top_k: 1]
[num_machines: 1]
[local_listen_port: 12400]
[time_out: 120]
[machine_list_filename: ]
[machines: ]
[gpu_platform_id: -1]
[gpu_device_id: -1]
[gpu_use_dp: 0]

end of parameters

pandas_categorical:[]
