tree
version=v3
num_class=1
num_tree_per_iteration=1
label_index=0
max_feature_idx=228
objective=regression
feature_names=2 3 4 5 6 7 8 9 10 11 12 13 14 15 16 17 18 19 20 21 22 23 24 25 26 27 28 29 30 31 32 33 34 35 36 37 38 39 40 41 42 43 44 45 46 47 48 49 50 51 52 53 54 55 56 57 58 59 60 61 62 63 64 65 66 67 68 69 70 71 72 73 74 75 76 77 78 79 80 81 82 83 84 85 86 87 88 89 90 91 92 93 94 95 96 97 98 99 100 101 102 103 104 105 106 107 108 109 110 111 112 113 114 115 116 117 118 119 120 121 122 123 124 125 126 127 128 129 130 131 132 133 134 135 136 137 138 139 140 141 142 143 144 145 146 147 148 149 150 151 152 153 154 155 156 157 158 159 160 161 162 163 164 165 166 167 168 169 170 171 172 173 174 175 176 177 178 179 180 181 182 183 184 185 186 187 188 189 190 191 192 193 194 195 196 197 198 199 200 201 202 203 204 205 206 207 208 209 210 211 212 213 214 215 216 217 218 219 220 221 222 223 224 225 226 227 228 229 230
feature_infos=[0:1] [0:1] [0:1] [19:84] [0:1] [0:1] [0:1] [0:1] [0:1] [0:1] [-0.02:0.97999999999999998] [0:1] [0:1] [0:1] [0:1] [0:1] [0:1] [-0.14000000000000001:0.85999999999999999] [0:1] [-1:11] [-1:13] [0:9] [-1:9] [-1:12] [-1:6] [-1:10] [0:221] [0:610] [0:20] [0:333] [0:1] [-1:9] [0:28] [0:1623] [-1:70] [0:1] [0:5] [-1:8] [0:178] [0:173] [-0.13:0.87] [-0.20999999999999999:0.79000000000000004] [0:80] [-10292210:0] [0:7000000] [-6010001:0] [0:10292579.550000001] [-10002922:0] [0:15000000] [-15000000:0] [0:10786685.09] [-14551732:0] [0:13390125.48] [-19039139.52:0] [0:41946102.950000003] [-33901425:0] [0:18566160.890000004] [-8460516.4000000004:0] [0:8410018.9100000001] [-18949102.259999998:0] [0:20914145.710000001] [0:184] [0:193] [0:210] [0:154] [0:498] [0:583] [0:774] [0:843] [0:1005] [0:162] [0:1433] [0:319] [0:878] [0:177] [0:1020] [0:147] [0:387] [0:112] [-10290000:1790409.3999999999] [-86023.020000000019:158800] [-622033:280000] [-1410539.1299999999:10292579.550000001] [-144555.76000000001:134484.92999999999] [-421533:5000000] [-10000000:15000000] [-102697.34:156115.57000000001] [-648000:480000] [-15000000:3035089.8900000001] [-210000:155000] [-520491:990000] [-3024117.3700000001:1850000] [-118643.55:138697.66999999998] [-2141550:510000] [-996721.77000000002:33943449.250000007] [-126179.7:135000] [-668706:253750] [-33870562.890000001:3925480.77] [-122634:207120] [-750000:289400] [-3978816.54:5962867.2800000003] [-146737.26000000001:158772.56000000006] [-571924.5:518325] [-1861381.3399999999:2301719.5] [-150000:236356.44] [-492977:5000000] [0:374] [0:95] [0:15] [0:278] [0:122] [0:33] [0:605] [0:141] [0:26] [0:885] [0:150] [0:21] [0:1025] [0:108] [0:38] [0:1471] [0:134] [0:20] [0:891] [0:70] [0:18] [0:1044] [0:109] [0:24] [0:397] [0:129] [0:20] [-1041876.6499999999:0] [0:7000000] [-10290000:1800000] [-6000001:0] [0:6000000] [-1100000:10290000] [-5246093.7299999995:0] [0:15000000] [-10000000:3200000] [-15000000:0] [0:10720000] [-13224800.43:3000000] [-5324057.5499999998:0] [0:5531421.5499999998] [-3000000:1907000] [-19027129.52:0] [0:41946102.950000003] [-8000000:1493414.76] [-10756377.07:0] [0:10001004.379999999] [-33900000:3954000] [-5000516.4000000004:0] [0:7457260.2800000003] [-3985619:4950000] [-18895181.350000001:0] [0:20895000] [-4100000:5888578.1299999999] [0:184] [0:193] [0:63] [0:209] [0:153] [0:77] [0:498] [0:581] [0:62] [0:774] [0:837] [0:55] [0:1005] [0:162] [0:58] [0:1433] [0:319] [0:54] [0:877] [0:169] [0:263] [0:1020] [0:133] [0:75] [0:387] [0:96] [0:89] [-256350.06051282049:708321.42857142852] [0:5000000.0020142887] [0.01:78355678.829999998] [0.01:33895156.670000002] [0.01:122000] [0.01:4609157.5782352937] [1:1608] [0:8937698.0736189466] [-78364043.230000004:-0.01] [-23900000:-0.01] [-5000000:-0.01] [-5000000:-0.01] [1:5693] [0:3026255.0603223899] [1:61] [1:61] [1:61] [-9997652.3599999994:9916500] [0.02:156719722.06] [2:5836] [0.01:4285767.9285714282] [0.01:10000125.166666666] [0.01:4609157.5782352937] [0.01:7500187.75] [-5000000:-0.01] [-15000000:-0.01] [1:119.10204081632654] [1:26.360655737704917] [1:118.60416666666667] [0.0062893081761006293:0.96666666666666667] [0.033333333333333333:0.99371069182389937] [9.9997990040400199e-08:0.99999933337821922] [6.6662178080009284e-07:0.99999990000201] [1:415] [0.01:36000002.879999995] [0.01:250000] [0.01:33895156.670000002] [0.01:250000] [-250000:33895026.370000005] [-33900406:99294.070000000007] [20190501:20190630] [20190501:20190630]
tree_sizes=2863 2927 2923 2921 2935 2932 2922 2932 2955 2930 2924 2923 2914 2921 2923 2917 2924 2932 2933 2953

Tree=0
num_leaves=31
num_cat=0
split_feature=219 36 228 221 1 155 215 159 226 36 188 36 80 36 226 36 41 37 36 125 192 144 107 151 37 41 162 155 33 156
split_gain=138.591 233.543 33.4232 22.9464 21.2288 16.8919 16.172 15.9536 23.3296 15.3294 19.5705 15.4384 12.7888 12.7268 11.9716 10.6195 11.0315 10.1596 10.1448 8.09826 7.76643 7.71165 6.71695 6.64202 6.99631 6.63529 6.62186 6.242 6.04352 6.00561
threshold=0.85374778276287977 2.5000000000000004 20190622.500000004 3800.1150000000002 1.0000000180025095e-35 1.0000000180025095e-35 1.7245689655172416 -1.0000000180025095e-35 -2239.4999999999995 1.5000000000000002 2198.5585983667629 3.5000000000000004 -0.95499999999999996 1.0000000180025095e-35 -9.9949999999999992 3.5000000000000004 0.20500000000000004 4.5000000000000009 3.5000000000000004 4.5000000000000009 100.00166666666668 910.42500000000007 1.0000000180025095e-35 -162.73999999999998 3.5000000000000004 0.055000000000000007 1.0000000180025095e-35 1.7850000000000004 24.500000000000004 5.4000000000000012
decision_type=8 2 10 10 2 8 10 10 10 2 10 2 8 2 10 2 2 2 2 10 10 10 10 10 2 2 10 10 2 10
left_child=2 4 9 12 -2 22 -5 8 27 -1 11 14 -3 17 23 16 -14 -7 20 21 -10 -13 -6 -11 29 -15 -12 -4 -9 -25
right_child=1 3 7 6 5 13 -8 28 18 10 26 19 15 25 -16 -17 -18 -19 -20 -21 -22 -23 -24 24 -26 -27 -28 -29 -30 -31
leaf_value=0.22090803602731507 0.22096313618008392 0.24901456107930797 0.2256630725871501 0.22381290668686021 0.23080548729457531 0.22163815640174001 0.24130642708369113 0.21993717241722374 0.25310771786723951 0.21896585445574415 0.22122334703161825 0.24228917943923034 0.23923798647982347 0.23291508677184614 0.23814390392409421 0.24469535352924074 0.22532754628136009 0.23070798090361933 0.24030844103140117 0.21911292382506084 0.22656285365864995 0.22360879633258282 0.2422316155450214 0.23253651553216489 0.22161581169810085 0.22192712265388706 0.2290145058256588 0.21876060334910816 0.24678587897518525 0.22353006571477416
leaf_weight=1348 3069 516 475 333 510 1918 219 10895 29 263 1274 404 1305 614 243 869 160 368 229 53 553 64 172 655 343 177 347 1055 21 258
leaf_count=1348 3069 516 475 333 510 1918 219 10895 29 263 1274 404 1305 614 243 869 160 368 229 53 553 64 172 655 343 177 347 1055 21 258
internal_value=0 0.0938859 -0.0511497 0.307941 -0.0127654 0.0376169 0.121328 -0.0778965 -0.00298677 0.0163641 0.0481102 0.10777 0.344085 0.00605733 0.0630543 0.312588 0.260637 -0.0317735 0.134129 0.258998 0.0639729 0.300954 0.180005 0.030086 0.0603449 0.115389 -0.0359145 -0.0756673 -0.0939614 0.106091
internal_weight=0 10230 18509 3402 6828 3759 552 13257 2341 5252 3904 2283 2850 3077 1762 2334 1465 2286 811 521 582 468 682 1519 1256 791 1621 1530 10916 913
internal_count=28739 10230 18509 3402 6828 3759 552 13257 2341 5252 3904 2283 2850 3077 1762 2334 1465 2286 811 521 582 468 682 1519 1256 791 1621 1530 10916 913
shrinkage=1


Tree=1
num_leaves=31
num_cat=0
split_feature=225 14 225 227 218 1 109 13 202 162 215 34 226 144 37 21 156 154 222 138 40 145 218 145 162 138 188 34 40 226
split_gain=138.467 102.323 48.6124 36.059 29.9527 29.6628 18.0845 17.601 16.4494 15.5713 12.4316 11.1112 10.0674 9.8526 9.78149 8.84828 8.29847 9.8508 7.37544 7.04911 6.51007 6.34324 6.25948 5.64246 5.55978 5.4112 5.25816 5.27117 6.5861 5.13314
threshold=1000.0050000000001 1.0000000180025095e-35 -4.9499999999999993 20190526.500000004 0.059944968615095427 1.0000000180025095e-35 1.0000000180025095e-35 1.0000000180025095e-35 1.5000000000000002 1.0000000180025095e-35 1.4935897435897438 15.000000000000002 -21.244999999999994 -318.56999999999994 3.5000000000000004 1.0000000180025095e-35 -82.489999999999995 -28.889999999999997 0.46500000000000008 -0.74999999999999989 0.23500000000000001 -249.09999999999999 0.52684622873680331 -29.965 2.5000000000000004 -415.76999999999992 1633.0701628419968 1.0000000180025095e-35 -0.094999999999999987 23.655000000000005
decision_type=10 2 8 10 10 2 10 2 10 10 10 2 10 10 2 2 10 10 10 8 2 10 8 10 10 10 10 2 2 10
left_child=1 2 3 21 10 -4 16 15 9 13 20 14 18 -2 -9 -7 -6 -18 24 -13 26 -1 -15 -19 -10 -25 27 -3 -29 -17
right_child=8 4 5 -5 6 7 -8 11 12 -11 -12 19 -14 22 -16 29 17 23 -20 -21 -22 -23 -24 25 -26 -27 -28 28 -30 -31
leaf_value=-0.0070418856022032824 0.028532580186923347 -0.00047465835194118689 -0.0030061665992346205 -0.0029895680210062568 0.017507219747189554 0.0109360611095788 0.015348380213021002 0.0047673193742556299 -0.0021771206023925376 0.019336317278563032 0.021586295932709106 0.014298209255543827 0.0035167641752729567 -0.004646105179885794 0.012794438178385182 -0.0032006648549651401 -0.0048675964654953672 -0.0019506577714161729 -0.0046623817782215212 0.0010942496807932788 0.00061473670963929075 0.020321259052086045 0.0044562401366767595 0.029100773317946329 0.0072422332974553805 0.0062503662675200689 -0.0066176988650113351 0.010615705728223115 0.017789605134323743 0.021693009031670436
leaf_weight=22 30 61 4474 262 93 126 387 1191 1868 126 503 107 443 433 557 1491 367 227 10949 1827 107 568 335 27 171 641 32 581 712 21
leaf_count=22 30 61 4474 262 93 126 387 1191 1868 126 503 107 443 433 557 1491 367 227 10949 1827 107 568 335 27 171 641 32 581 712 21
internal_value=0 0.0697961 0.0198187 0.248927 0.212134 -0.000111909 0.116315 0.0503563 -0.0690289 0.060031 0.29576 0.0887207 -0.0779077 0.00844748 0.146503 -0.0358815 0.0618623 0.040618 -0.0829641 0.0364954 0.249953 0.386019 -0.0135136 0.0971934 -0.0277434 0.143479 0.2683 0.277769 0.291321 -0.0570984
internal_weight=0 14384 10646 852 3738 9794 1742 5320 14355 924 1996 3682 13431 798 1748 1638 1355 1262 12988 1934 1493 590 768 895 2039 668 1386 1354 1293 1512
internal_count=28739 14384 10646 852 3738 9794 1742 5320 14355 924 1996 3682 13431 798 1748 1638 1355 1262 12988 1934 1493 590 768 895 2039 668 1386 1354 1293 1512
shrinkage=0.05


Tree=2
num_leaves=31
num_cat=0
split_feature=225 36 218 109 0 228 154 227 207 36 212 228 34 41 213 157 144 189 36 225 150 148 37 156 205 19 11 0 109 22
split_gain=124.967 193.886 58.2683 19.0104 18.3752 15.2327 14.8081 14.2109 13.6475 15.6224 11.9427 11.7361 9.57703 10.5004 9.40129 8.67886 8.06588 7.79036 7.77961 7.45191 7.31925 7.51199 6.7167 6.71444 6.67138 5.58052 5.80171 5.34335 5.05168 5.01051
threshold=1000.0050000000001 2.5000000000000004 0.078531983192204072 1.0000000180025095e-35 1.0000000180025095e-35 20190623.500000004 -49.894999999999989 20190528.500000004 2891.6761111111114 3.5000000000000004 -33.701499999999996 20190602.500000004 15.000000000000002 -0.13499999999999998 1.4456264775413714 -152.54999999999998 41.315000000000019 110.48500000000001 1.5000000000000002 240.19500000000002 -0.71499999999999975 -9.9949999999999992 2.5000000000000004 -499.95999999999998 1357.7750000000001 -1.0000000180025095e-35 1.0000000180025095e-35 1.0000000180025095e-35 2.5000000000000004 1.5000000000000002
decision_type=10 2 10 10 2 10 10 8 10 2 8 8 2 2 8 10 10 10 2 10 10 10 2 10 10 2 2 2 10 2
left_child=1 4 7 6 11 8 23 17 9 -2 -9 -1 13 -13 -15 -8 -11 -3 -14 -5 -17 -22 24 -4 -20 26 -16 -23 -26 -12
right_child=5 2 3 19 -6 -7 15 10 -10 16 29 12 18 14 25 20 -18 -19 22 -21 21 27 -24 -25 28 -27 -28 -29 -30 -31
leaf_value=0.0090152976870236535 -0.0010041706701811562 0.021049140500170843 0.013827738309135805 0.021047594485127871 -0.0038159298449716044 -0.0042343043300152273 -0.0024750486775940543 -0.002216452951649673 -0.0051976321075245038 0.010735684633255006 0.014091990285162261 -0.0010160510472193519 -0.0041204336539326075 -0.0058339627516781623 0.0036180822122128514 0.020354149225526131 -0.0009404839956995303 0.011703639509652159 0.013935415524278764 0.0080923209666396694 -0.0018876888720249689 0.011390212284482044 -0.0050430592496034715 -0.0049591208836548637 -0.003730258292002644 0.014729154194445954 0.014472978719237712 0.00336142064842545 0.022055639089508493 -0.0043201748281717304
leaf_weight=397 1838 1127 52 223 3853 10680 255 131 1089 545 1337 1314 1615 163 757 104 203 278 173 221 216 575 172 557 139 194 147 324 22 38
leaf_count=397 1838 1127 52 223 3853 10680 255 131 1089 545 1337 1314 1615 163 757 104 203 278 173 221 216 575 172 557 139 194 147 324 22 38
internal_value=0 0.0663063 0.215218 0.104118 -0.0242124 -0.0655775 0.0640733 0.311662 -0.0100455 0.0295001 0.244176 0.0152074 0.00124993 0.0422357 0.107422 0.118269 0.151338 0.384 -0.0485088 0.291983 0.153364 0.129699 0.0596893 -0.0670998 0.142368 0.14069 0.107664 0.169933 -0.00413439 0.271663
internal_weight=0 14384 5438 2527 8946 14355 2083 2911 3675 2586 1506 5093 4696 2575 1261 1474 748 1405 2121 444 1219 1115 506 609 334 1098 904 899 161 1375
internal_count=28739 14384 5438 2527 8946 14355 2083 2911 3675 2586 1506 5093 4696 2575 1261 1474 748 1405 2121 444 1219 1115 506 609 334 1098 904 899 161 1375
shrinkage=0.05


Tree=3
num_leaves=31
num_cat=0
split_feature=218 36 157 200 36 226 36 21 226 36 223 215 227 156 1 135 228 1 138 159 226 36 218 154 89 125 104 156 220 77
split_gain=104.029 184.514 26.6758 21.5462 20.4811 24.3687 19.6143 15.0689 13.7676 11.5286 13.1237 11.082 10.3781 10.2858 8.82087 8.29539 8.2948 7.75872 7.60805 7.08846 8.17774 6.14051 8.43762 6.73975 5.83792 5.68283 5.6171 5.7041 5.47541 5.26019
threshold=0.078531983192204072 1.5000000000000002 -106.74999999999999 925.06424240711237 1.5000000000000002 -1966.8949999999998 3.5000000000000004 1.0000000180025095e-35 -17.384999999999994 3.5000000000000004 2999.8600000000001 1.7791327913279134 20190605.500000004 1000.4300000000002 1.0000000180025095e-35 -1.0000000180025095e-35 20190619.500000004 1.0000000180025095e-35 -0.74999999999999989 -11.879999999999997 -2358.9449999999993 4.5000000000000009 0.4464301897922594 -2868.5499999999997 52.679999999999986 2.5000000000000004 65.030000000000015 20.035 1.5000000000000002 2.5000000000000004
decision_type=10 2 10 8 2 10 2 2 10 2 10 10 10 10 2 10 8 2 10 10 10 2 10 10 10 10 10 10 10 10
left_child=1 7 19 12 -4 11 8 28 18 10 17 -6 -3 15 -9 -8 -16 -5 24 20 29 -13 23 -23 25 -7 27 -20 -1 -2
right_child=2 3 4 9 5 6 13 14 -10 -11 -12 21 -14 -15 16 -17 -18 -19 26 -21 -22 22 -24 -25 -26 -27 -28 -29 -30 -31
leaf_value=0.007635963307832604 0.0074942994370775411 0.020078567231806659 -0.0044798772189672308 0.0051914878547883554 -0.0039981827151477798 0.015682553200248899 0.024398960667577657 -0.0039970012882158124 0.0094848964802562927 0.01500764884743503 -0.0024628927780976223 -0.0011057184336806191 -0.005623946665990644 -0.0026943366169124038 0.0082347299278217514 0.0096932840319400165 -0.00087782269639087606 0.012156269876341309 0.0022579302756529085 -0.0048960580418929986 0.0058633297749541022 -0.010777397006750108 0.001734367340423499 0.020433247694745662 -0.0044791488647460938 -0.0038532386751885112 -0.0054474663076012637 -0.0036902102822896337 0.028332017460151723 -0.0042160828488603027
leaf_weight=201 106 933 2421 603 2564 179 110 2661 458 941 248 676 41 148 274 748 2819 1187 1316 7050 330 20 314 128 75 47 516 581 38 1006
leaf_count=201 106 933 2421 603 2564 179 110 2661 458 941 248 676 41 148 274 748 2819 1187 1316 7050 330 20 314 128 75 47 516 581 38 1006
internal_value=0 0.0831113 -0.0433597 0.250818 -0.0091518 0.0155638 0.0679103 -0.0275082 0.0293238 0.208603 0.166331 -0.0435133 0.379933 0.189577 -0.0377278 0.231573 -0.00141136 0.196201 0.00225991 -0.0848547 -0.020972 0.0386122 0.127467 0.324312 0.152169 0.232396 -0.0164399 0.0087235 0.218531 -0.0619961
internal_weight=0 9946 18793 3953 10301 7880 4178 5993 3172 2979 2038 3702 974 1006 5754 858 3093 1790 2714 8492 1442 1138 462 148 301 226 2413 1897 239 1112
internal_count=28739 9946 18793 3953 10301 7880 4178 5993 3172 2979 2038 3702 974 1006 5754 858 3093 1790 2714 8492 1442 1138 462 148 301 226 2413 1897 239 1112
shrinkage=0.05


Tree=4
num_leaves=31
num_cat=0
split_feature=225 36 218 128 159 144 1 227 228 224 34 41 215 213 13 31 58 100 150 159 36 56 151 36 37 205 22 228 36 223
split_gain=103.616 130.895 82.1403 19.6312 21.3545 18.5934 17.0379 11.7804 11.4998 8.86376 8.782 9.04619 8.34551 7.81493 8.55601 7.86827 7.23237 7.13923 6.68562 6.31308 5.74583 5.6429 5.58961 5.58442 6.03574 6.72517 5.29068 5.15792 8.2426 7.361
threshold=2000.0100000000002 2.5000000000000004 0.059944968615095427 1.0000000180025095e-35 324.16000000000003 -18.705000000000009 1.0000000180025095e-35 20190522.500000004 20190603.500000004 7.8250000000000011 15.000000000000002 -0.13499999999999998 1.4031250000000002 1.4456264775413714 1.0000000180025095e-35 -1.0000000180025095e-35 5.0050000000000008 0.76500000000000012 -474.53999999999996 -306.09999999999997 3.5000000000000004 1999.5000000000002 -323.14999999999992 1.5000000000000002 2.5000000000000004 1357.7750000000001 -1.0000000180025095e-35 20190623.500000004 3.5000000000000004 4999.9950000000008
decision_type=10 2 10 10 10 10 2 8 8 10 2 2 8 8 2 2 10 10 10 10 2 10 10 2 2 10 2 10 2 10
left_child=1 6 7 4 9 20 26 17 -8 -4 11 -10 -9 -13 15 -15 19 22 -11 21 -5 -2 -3 -12 25 -25 -1 28 -21 -30
right_child=16 2 3 5 -6 -7 8 12 10 18 23 13 -14 14 -16 -17 -18 -19 -20 27 -22 -23 -24 24 -26 -27 -28 -29 29 -31
leaf_value=0.0066567567972148347 0.0083252624230226498 0.0036034330843933045 0.012213015305697308 0.0046416903839957332 -0.0035107942469022125 -0.002309639551185788 0.008555706309490518 -0.0017039348249850068 -0.00089132870766608159 0.030564994892726346 -0.0038338632938565115 -0.0050251179457416195 0.012266012754014169 0.01297291202040819 0.01006231584926387 -0.0028338329406616129 -0.0045727305214142994 -0.0093904828031857804 0.0036717365584059665 -0.0032880868664299082 0.018615909575351648 -0.0047414718714893847 0.018871860711680732 0.013210818880652809 -0.0051070150218366353 -0.00054812171930417963 -0.0038655139175842292 -0.0037004071930737794 0.013337264765220083 0.0010648698290766044
leaf_weight=123 256 63 978 155 414 1726 427 115 1360 24 1623 169 1519 104 668 324 6714 24 623 984 140 122 1235 166 194 191 4154 3436 157 551
leaf_count=123 256 63 978 155 414 1726 427 115 1360 24 1623 169 1519 104 668 324 6714 24 623 984 140 122 1235 166 194 191 4154 3436 157 551
internal_value=0 0.0520331 0.155632 0.0633062 0.132535 -0.00653883 -0.0244531 0.282439 0.0138525 0.184189 -0.000140114 0.0387901 0.225656 0.0996585 0.130523 0.0201412 -0.0694237 0.352623 0.0933865 -0.0425593 0.22547 0.0821591 0.362616 -0.0471464 0.0398382 0.116992 -0.0712582 -0.0517527 -0.00655773 0.0757258
internal_weight=0 16519 7016 4060 2039 2021 9503 2956 5226 1625 4799 2625 1634 1265 1096 428 12220 1322 647 5506 295 378 1298 2174 551 357 4277 5128 1692 708
internal_count=28739 16519 7016 4060 2039 2021 9503 2956 5226 1625 4799 2625 1634 1265 1096 428 12220 1322 647 5506 295 378 1298 2174 551 357 4277 5128 1692 708
shrinkage=0.05


Tree=5
num_leaves=31
num_cat=0
split_feature=225 36 192 1 128 159 228 156 227 154 187 228 150 225 213 34 41 215 13 202 144 147 1 225 24 41 222 36 225 100
split_gain=96.0924 136.349 41.9544 15.1849 13.9768 14.1279 13.1543 11.5368 11.5108 9.83635 9.42315 8.72928 8.43409 7.81108 7.25696 7.15173 12.5068 8.94829 6.89792 6.53694 11.5058 7.03734 6.38589 6.23678 5.97504 5.57125 5.44993 5.68964 7.5735 5.32894
threshold=1000.0050000000001 2.5000000000000004 100.00166666666668 1.0000000180025095e-35 1.0000000180025095e-35 300.23000000000008 20190611.500000004 -129.03999999999999 20190566.000000004 -0.37499999999999994 -1.413908569500683 20190603.500000004 -1.0000000180025095e-35 0.080000000000020485 2.36451048951049 15.000000000000002 -0.13499999999999998 1.2540322580645162 1.0000000180025095e-35 1.5000000000000002 -268.69499999999994 -4.0249999999999995 1.0000000180025095e-35 3463.7950000000005 5.5000000000000009 -0.16499999999999998 0.46500000000000008 3.5000000000000004 3651.5800000000004 0.070000000000109155
decision_type=10 2 10 2 10 10 10 10 10 10 10 8 10 8 8 2 2 8 2 10 10 10 2 10 2 2 10 2 10 10
left_child=1 3 8 -1 5 14 12 -6 13 -9 -10 -5 -2 -3 -4 16 -13 -18 -19 20 -8 -22 -15 -14 -20 -16 27 -21 -29 -12
right_child=6 2 4 11 7 -7 19 9 10 -11 29 15 23 22 25 -17 17 18 24 26 21 -23 -24 -25 -26 -27 -28 28 -30 -31
leaf_value=-0.0031928190317608639 0.024932817422917912 0.018044689555518231 0.0070584653025455666 0.0081536210500277023 0.012324148434581178 -0.0029564346733783921 0.025923428177199465 -0.0048758913245466025 -0.005983576757403521 0.0072432419514819367 0.014812803918288814 -0.0012634859889261683 0.0065320990717590765 0.0081674727313220518 -0.004939980059862137 -0.0018645261521952087 -0.0046533130623143291 0.0026322277109836036 0.0080907444636158597 -0.0032564388711454392 0.021492720267602378 -0.0018366344185022036 0.014575959110389586 -0.0020690149644256701 0.019436606077047495 0.017106422111588606 -0.0038813190796340292 0.010987837419316575 -0.00043303068583549304 -0.0040940089111632487
leaf_weight=3943 42 916 698 390 165 252 47 711 130 219 180 1293 398 600 31 2008 174 414 453 1253 35 423 1104 448 156 379 10971 185 674 47
leaf_count=3943 42 916 698 390 165 252 47 711 130 219 180 1293 398 600 31 2008 174 414 453 1253 35 423 1104 448 156 379 10971 185 674 47
internal_value=0 0.0589953 0.183661 -0.0176871 0.0868837 0.154588 -0.056656 0.00279444 0.263469 -0.0404406 0.0950152 0.0195562 0.0612621 0.286422 0.203195 0.00711262 0.0429205 0.11658 0.152238 -0.0643621 0.0472772 -0.00107647 0.246389 0.0395474 0.219941 0.30879 -0.0686714 -0.0221537 0.0405329 0.217964
internal_weight=0 14263 5432 8831 2455 1360 14476 1095 2977 930 357 4888 888 2620 1108 4498 2490 1197 1023 13588 505 458 1704 846 609 410 13083 2112 859 227
internal_count=28739 14263 5432 8831 2455 1360 14476 1095 2977 930 357 4888 888 2620 1108 4498 2490 1197 1023 13588 505 458 1704 846 609 410 13083 2112 859 227
shrinkage=0.05


Tree=6
num_leaves=31
num_cat=0
split_feature=225 36 190 1 165 226 228 80 125 198 155 36 218 34 41 24 215 225 215 202 144 147 215 24 225 215 147 115 134 40
split_gain=86.7234 123.055 37.9354 13.7044 13.204 12.008 11.8717 9.94326 9.88936 8.79965 8.45165 8.26174 8.97418 8.68094 9.72715 8.08303 6.63264 6.04553 5.94775 5.89958 10.384 6.3512 5.62542 6.17702 5.57295 5.16768 5.01795 4.96886 4.88211 4.83801
threshold=1000.0050000000001 2.5000000000000004 110.10000000000001 1.0000000180025095e-35 1.0000000180025095e-35 -52.249999999999993 20190611.500000004 -4.9499999999999993 2.5000000000000004 -1067.0175907590756 0.075000000000000025 1.5000000000000002 0.85916370735913994 15.000000000000002 -0.13499999999999998 1.5000000000000002 1.5395010395010398 1.0000000180025095e-35 1.8017857142857145 1.5000000000000002 -268.69499999999994 -4.0249999999999995 1.3766891891891893 -1.0000000180025095e-35 3463.7950000000005 5.3623737373737379 -1.0000000180025095e-35 1.5000000000000002 216.09000000000003 0.41500000000000004
decision_type=10 2 10 2 10 10 10 8 10 8 10 2 8 2 2 2 10 8 8 10 10 10 8 2 10 8 10 10 10 2
left_child=1 3 7 -1 5 26 24 -3 16 -7 15 13 28 14 17 18 -6 -5 -9 20 -8 -22 -16 -24 -2 -21 -4 -11 -13 -17
right_child=6 2 4 11 8 9 19 10 -10 27 -12 12 -14 -15 22 29 -18 -19 -20 25 21 -23 23 -25 -26 -27 -28 -29 -30 -31
leaf_value=-0.0030331783304654671 0.0070817476956974591 0.01840236920058428 0.010343357548117639 0.012590170632067479 0.0060790033118119317 -0.0016506906954725836 0.024627256710478603 -0.00024642624057732618 -0.0024248748086392879 0.010613148545030676 -0.0013797676762727301 -0.0005107940632131016 0.010558294821926889 -0.0028355738286487079 -0.0026438144823679559 0.015608278581185587 0.015652693906251122 -0.0019566392108270329 0.010359776452870487 -0.0034444185513084671 0.020418084285088949 -0.0017448027664465262 0.0018058849387189262 0.010289483947976345 -0.00085092601735280474 0.002148123169252409 -0.0020758223718160581 0.030500688361270092 0.024728660322725776 -0.0030379349779751565
leaf_weight=3943 421 597 88 76 315 157 47 154 152 306 127 456 423 1642 182 1033 425 1186 933 12656 35 423 351 552 467 427 1074 35 20 36
leaf_count=3943 421 597 88 76 315 157 47 154 152 306 127 456 423 1642 182 1033 425 1186 933 12656 35 423 351 552 467 427 1074 35 20 36
internal_value=0 0.0560456 0.174478 -0.0168028 0.0857012 0.0329731 -0.0538232 0.253144 0.183827 0.162891 0.223097 0.0185784 0.105179 -0.000938816 0.0380807 0.237864 0.231548 -0.0216121 0.177143 -0.061144 0.0449134 -0.00102265 0.107511 0.139837 0.0581989 -0.0652378 -0.022706 0.253088 0.0109937 0.299607
internal_weight=0 14263 5432 8831 2552 1660 14476 2880 892 498 2283 4888 899 3989 2347 2156 740 1262 1087 13588 505 458 1085 903 888 13083 1162 341 476 1069
internal_count=28739 14263 5432 8831 2552 1660 14476 2880 892 498 2283 4888 899 3989 2347 2156 740 1262 1087 13588 505 458 1085 903 888 13083 1162 341 476 1069
shrinkage=0.05


Tree=7
num_leaves=31
num_cat=0
split_feature=225 14 225 227 1 213 13 202 213 131 197 35 159 55 154 34 41 141 215 153 35 11 21 35 51 37 41 162 165 202
split_gain=78.317 54.1549 28.2294 29.3624 18.7519 18.3952 13.4715 10.397 11.6283 9.85695 8.80493 9.75755 8.35679 7.14194 7.12021 6.54832 10.1181 6.54658 6.34673 6.08677 6.23588 6.01713 5.6674 5.29659 5.26143 5.05226 4.91028 4.72794 4.57733 7.45366
threshold=1026.4850000000004 1.0000000180025095e-35 -1.0000000180025095e-35 20190566.000000004 1.0000000180025095e-35 1.4821200510855685 1.0000000180025095e-35 1.5000000000000002 1.5732142857142859 2.5000000000000004 -0.99499999999999988 1.0000000180025095e-35 -166.89500000000004 -7.9449999999999994 -1883.5899999999999 15.000000000000002 -0.13499999999999998 -174.74999999999997 5.3623737373737379 200.30000000000004 1.0000000180025095e-35 1.0000000180025095e-35 1.0000000180025095e-35 1.0000000180025095e-35 -1582.5999999999997 1.5000000000000002 0.26500000000000007 1.0000000180025095e-35 1.0000000180025095e-35 1.5000000000000002
decision_type=10 2 8 10 2 8 2 10 10 10 8 2 10 10 8 2 2 8 8 10 2 2 2 2 10 2 2 10 10 10
left_child=1 2 3 24 -4 13 22 8 -2 14 28 15 -11 -3 -7 16 -12 -16 -9 20 -19 -22 -6 -24 -1 -18 -26 -10 -8 -30
right_child=7 5 4 -5 6 9 10 18 27 12 11 -13 -14 -15 17 -17 25 19 -20 -21 21 -23 23 -25 26 -27 -28 -29 29 -31
leaf_value=-0.0093392033615837932 -0.00070219624937437053 -0.0065758739897738344 -0.0024175221838945112 -0.0053289307761147167 0.007958710476429794 -0.00083807263749115398 -0.001199031507276376 -0.0031428085224377046 0.0078680667481575792 0.016205831572635852 -7.074666901559614e-05 0.0099281346043908463 -0.003963053192604672 0.0040602176700150283 0.018878830236539922 -0.0010566098917223199 -0.0033962091431021693 0.0066728847825846989 0.0025277472959856773 -0.003854881408246788 0.010880139994443771 0.018548119126353412 -0.0036968703097418742 0.0059862450048138831 0.016042071128571162 0.012583039150977471 -0.0015985993224950064 0.023891127618059282 0.019164167005907409 0.001611947815151925
leaf_weight=23 696 230 4371 264 137 132 1007 12945 171 67 397 830 220 503 243 568 56 671 513 74 1276 320 1330 158 649 424 42 63 77 282
leaf_count=23 696 230 4371 264 137 132 1007 12945 171 67 397 830 220 503 243 568 56 671 513 74 1276 320 1330 158 649 424 42 63 77 282
internal_value=0 0.0529387 0.0164951 0.178375 6.69508e-05 0.156485 0.0402554 -0.0514666 0.0507925 0.191153 0.0740451 0.112151 0.0149072 0.0144567 0.209776 0.062516 0.116692 0.221349 -0.0585331 0.205132 0.214345 0.248352 -0.0354544 -0.0533738 0.283736 0.214376 0.299397 0.243639 0.0105825 0.107533
internal_weight=0 14351 10615 978 9637 3736 5266 14388 930 3003 3641 2275 287 733 2716 1445 877 2584 13458 2341 2267 1596 1625 1488 714 480 691 234 1366 359
internal_count=28739 14351 10615 978 9637 3736 5266 14388 930 3003 3641 2275 287 733 2716 1445 877 2584 13458 2341 2267 1596 1625 1488 714 480 691 234 1366 359
shrinkage=0.05


Tree=8
num_leaves=31
num_cat=0
split_feature=225 36 192 131 128 159 1 156 227 228 187 35 214 36 37 41 58 159 157 150 151 154 155 41 11 226 41 131 207 197
split_gain=70.8027 85.0869 54.6405 17.9738 12.6947 12.4981 11.1263 9.44652 9.39999 8.071 7.90759 6.47977 5.94741 6.88944 7.9396 7.38598 5.90256 7.91419 5.65306 6.41374 5.52718 5.44194 5.39855 5.3816 5.3365 4.71091 4.516 7.06922 4.71376 4.4107
threshold=2000.0100000000002 2.5000000000000004 100.00166666666668 1.0000000180025095e-35 1.0000000180025095e-35 -195.72500000000005 1.0000000180025095e-35 -3.8850000000000011 20190566.000000004 20190618.500000004 -1.413908569500683 1.0000000180025095e-35 1.2236111111111114 1.0000000180025095e-35 5.5000000000000009 0.065000000000000016 0.71500000000000008 -82.909999999999982 -13.609999999999998 -199.93999999999997 -999.87499999999989 -0.37499999999999994 0.075000000000000025 0.34500000000000003 1.0000000180025095e-35 -300.04999999999995 -0.15499999999999997 1.0000000180025095e-35 2891.6761111111114 -26.394999999999996
decision_type=10 2 10 10 10 10 2 10 10 8 10 2 8 2 2 2 10 10 10 10 10 10 10 2 2 8 2 10 10 8
left_child=1 6 8 4 20 -5 -1 -6 11 29 -10 -3 -11 14 -14 25 17 -2 -7 -20 -4 -9 -12 -13 -22 -15 -19 28 -28 -8
right_child=16 2 3 5 7 18 9 21 10 12 22 23 13 15 -16 -17 -18 26 19 -21 24 -23 -24 -25 -26 -27 27 -29 -30 -31
leaf_value=-0.0028510425250485795 0.0061338478322155382 0.0082253503049851181 -0.0001370281826519797 0.0096184957265853886 0.011958678220257616 -0.0041510895683626644 -0.00049765374925401476 -0.0045246790875406824 -0.0059617170118368597 -0.0028378962897337399 0.013758572430788785 0.014611087947793753 -0.0017810331972222351 -0.0018067156576684546 0.0080063647000079476 -0.0048920592423095264 -0.0036961738591190074 -0.0052485489663343099 0.023808461613953114 0.00066956449659018758 0.0088576488154945548 0.0048050894735986172 -0.0044681721138504311 0.0034635517325090331 0.018574601540430672 0.0082885179139696227 0.0039837525055116535 -0.0028856344635973109 -0.002385657344163801 0.0076827826082064392
leaf_weight=4184 321 658 141 250 165 1237 234 459 130 1456 174 1849 1752 140 235 172 7594 860 32 467 889 237 53 115 168 662 833 2269 446 557
leaf_count=4184 321 658 141 250 165 1237 234 459 130 1456 174 1849 1752 140 235 172 7594 860 32 467 889 237 53 115 168 662 833 2269 446 557
internal_value=0 0.0436399 0.12689 0.0511995 0.116667 -0.0166739 -0.0186204 0.0240455 0.229665 0.0122298 0.0774317 0.250393 -0.00442937 0.0213019 -0.0124698 0.0901976 -0.0566527 -0.0289187 -0.0467781 0.0430684 0.183233 -0.0269546 0.19006 0.279167 0.208041 0.130525 -0.0399582 -0.0241998 0.0352535 0.105256
internal_weight=0 16416 7024 4045 2059 1986 9392 861 2979 5208 357 2622 4417 2961 1987 974 12323 4729 1736 499 1198 696 227 1964 1057 802 4408 3548 1279 791
internal_count=28739 16416 7024 4045 2059 1986 9392 861 2979 5208 357 2622 4417 2961 1987 974 12323 4729 1736 499 1198 696 227 1964 1057 802 4408 3548 1279 791
shrinkage=0.05


Tree=9
num_leaves=31
num_cat=0
split_feature=225 36 190 150 228 1 227 228 138 226 36 37 35 21 13 24 41 150 155 36 205 222 162 60 148 159 223 41 205 218
split_gain=64.0489 93.2731 30.018 13.7166 13.2406 10.0757 9.36349 8.89782 8.63583 7.39963 6.73093 8.26995 6.65321 6.15331 6.918 7.35681 5.89723 5.86545 5.44329 5.27529 11.0691 6.49465 5.30013 5.33748 5.21556 6.35894 5.06436 4.88347 4.83779 4.47362
threshold=1026.4850000000004 2.5000000000000004 110.10000000000001 -0.71499999999999975 20190602.500000004 1.0000000180025095e-35 20190566.000000004 20190615.500000004 -0.74999999999999989 -9.9949999999999992 1.5000000000000002 2.5000000000000004 1.0000000180025095e-35 1.0000000180025095e-35 1.0000000180025095e-35 5.5000000000000009 -0.15499999999999997 -1.0000000180025095e-35 0.075000000000000025 3.5000000000000004 8603.1700000000037 1.1950000000000003 2.5000000000000004 780.04500000000019 -14.994999999999999 -65.084999999999994 8000.005000000001 0.34500000000000003 1276.45 0.53198551030764907
decision_type=10 2 10 10 10 2 10 10 10 10 2 2 2 2 2 2 2 10 10 2 10 10 10 10 10 10 10 2 10 8
left_child=1 5 6 -4 -5 -1 12 16 -6 -8 13 28 -3 -7 -15 -16 -2 -18 -11 -9 -21 22 -22 -24 -10 -26 -19 -14 -12 -27
right_child=7 2 3 4 8 10 9 19 24 18 11 -13 27 14 15 -17 17 26 -20 20 21 -23 23 -25 25 29 -28 -29 -30 -31
leaf_value=-0.0026533819586414885 -0.0051709914324936535 0.0077663098503160111 0.013940955737430462 0.012249669374550805 0.010639837162523737 0.0092520726387372281 -0.0056776116853647857 -0.0036122518123271642 -0.0041586828404958816 0.013440935961192564 0.011409682645572454 -0.0022373711961810872 0.014256890667824415 -0.0033216322748593884 -0.00025189855040944352 0.0068117227766351027 0.019590466483323663 0.0051136520155181456 -0.0054989685513535322 0.0085887591394723638 -7.3273842399184766e-05 -0.0029493504307197657 0.020023226535746032 0.0010619055243987071 0.013846173137426377 -0.0013550737765259469 -0.0030553165918741475 0.0033511573910166362 0.0022015371147477837 0.0055935728354988817
leaf_weight=3960 241 655 287 295 205 167 137 7205 568 168 381 295 1762 1420 1960 454 54 622 49 255 1110 4479 70 79 98 832 273 109 228 321
leaf_count=3960 241 655 287 295 205 167 137 7205 568 168 381 295 1762 1420 1960 454 54 622 49 255 1110 4479 70 79 98 832 273 109 228 321
internal_value=0 0.0478729 0.150355 0.0725923 0.0470697 -0.015547 0.22072 -0.0465441 0.0182221 0.0684065 0.0147449 0.0926773 0.242065 -0.00286339 -0.0110481 0.0215311 0.0362734 0.0717487 0.183284 -0.0540114 -0.0320902 -0.0411501 0.0223063 0.199398 -0.00370634 0.0323747 0.0524378 0.272431 0.159246 0.0115892
internal_weight=0 14351 5486 2606 2319 8865 2880 14388 2024 354 4905 904 2526 4001 3834 2414 1190 949 217 13198 5993 5738 1259 149 1819 1251 895 1871 609 1153
internal_count=28739 14351 5486 2606 2319 8865 2880 14388 2024 354 4905 904 2526 4001 3834 2414 1190 949 217 13198 5993 5738 1259 149 1819 1251 895 1871 609 1153
shrinkage=0.05


Tree=10
num_leaves=31
num_cat=0
split_feature=225 36 225 36 154 24 227 21 55 215 218 216 41 157 13 34 37 164 35 226 36 225 36 24 41 222 226 12 162 216
split_gain=61.3729 83.1134 33.0286 12.4823 12.4461 10.0901 10.3071 9.67629 9.55267 10.4687 8.44945 7.82963 7.82858 8.57037 7.12753 9.30757 9.06057 6.28332 5.76977 5.71713 5.49208 8.27873 5.42898 4.94612 4.91837 4.83097 4.53739 4.41477 4.40242 4.50251
threshold=1000.0050000000001 1.5000000000000002 200.05000000000004 3.5000000000000004 -292.57999999999993 3.5000000000000004 20190512.500000004 1.0000000180025095e-35 -2.9899999999999998 1.7161172161172162 0.113633236445968 0.11031947261663287 -0.15499999999999997 -298.92499999999995 1.0000000180025095e-35 15.000000000000002 3.5000000000000004 1.5000000000000002 1.0000000180025095e-35 -17.384999999999994 3.5000000000000004 7735.0000000000009 1.0000000180025095e-35 4.5000000000000009 0.075000000000000025 296.30500000000006 -32.404999999999994 1.0000000180025095e-35 1.0000000180025095e-35 0.48084263065179106
decision_type=10 2 10 2 8 2 8 2 10 8 10 10 2 10 2 2 2 10 2 10 2 10 2 2 2 10 10 2 10 8
left_child=1 7 4 19 17 6 10 25 -2 26 -6 18 -11 -14 -9 16 -16 -3 -8 -4 24 -22 23 -18 -15 -1 -10 -7 29 -5
right_child=8 2 3 28 5 27 11 14 9 12 -12 -13 13 20 15 -17 22 -19 -20 -21 21 -23 -24 -25 -26 -27 -28 -29 -30 -31
leaf_value=0.0059062150782321996 -0.0032593634784949576 -0.0026348781469580414 -0.0016442216029528092 0.0017430944097462206 0.014575650327095839 0.0056361413071321885 0.0023533062898178601 -0.0036710614600776559 -0.0026815156087477143 -0.0042046964582469733 0.004914728790259431 -0.0037234064845139518 -0.0022494108401014189 0.0054927419459078171 0.00019747579812348943 -0.002688496383937164 0.0055166523712567792 0.021709857547077643 0.0091294254435223873 0.0064179922599578278 0.014408220495855393 0.0022329688199022985 0.00041169873649074187 0.018047969244748541 -0.004498236331828805 0.029429390219350655 0.0063591174216106024 0.013283542627130921 0.016601321421330795 0.0143475100036385
leaf_weight=241 9089 308 1559 227 673 215 536 2777 3239 378 341 228 431 434 1639 2215 156 29 759 256 344 235 155 159 172 24 145 1544 128 103
leaf_count=241 9089 308 1559 227 673 215 536 2777 3239 378 341 228 431 434 1639 2215 156 29 759 256 344 235 155 159 172 24 145 1544 128 103
internal_value=0 0.0470047 0.125817 0.0270841 0.174257 0.188774 0.148419 -0.0268861 -0.045421 -0.0120152 0.226535 0.0964106 0.045461 0.0757653 -0.0338878 -0.00849824 0.0390488 -0.0107986 0.126496 -0.0101414 0.119685 0.189332 0.161448 0.23684 0.0531404 0.160732 -0.0458827 0.246976 0.174605 0.113544
internal_weight=0 14272 6906 2273 4633 4296 2537 7366 14467 5378 1014 1523 1994 1616 7101 4324 2109 337 1295 1815 1185 579 470 315 606 265 3384 1759 458 330
internal_count=28739 14272 6906 2273 4633 4296 2537 7366 14467 5378 1014 1523 1994 1616 7101 4324 2109 337 1295 1815 1185 579 470 315 606 265 3384 1759 458 330
shrinkage=0.05


Tree=11
num_leaves=31
num_cat=0
split_feature=225 36 190 116 202 162 62 225 227 1 35 213 100 226 40 154 159 156 154 20 100 24 36 225 222 33 226 192 213 228
split_gain=55.3891 75.3688 21.69 9.73287 9.10054 9.62755 8.96742 8.41906 13.569 6.86968 6.71585 6.40322 6.37954 6.02373 6.01832 6.10016 5.97002 5.89916 5.7844 5.66622 5.6303 5.0657 4.68105 9.08864 5.49121 5.44833 4.52543 4.52475 4.29475 4.0629
threshold=1000.0050000000001 2.5000000000000004 200.05000000000004 2.5000000000000004 1.5000000000000002 1.0000000180025095e-35 1.5000000000000002 -4.9499999999999993 20190522.500000004 1.0000000180025095e-35 1.0000000180025095e-35 1.2247474747474751 0.020000000000002561 -39.949999999999996 -0.094999999999999987 -602.93999999999994 100.06500000000001 -448.66499999999991 -329.99499999999995 -1.0000000180025095e-35 0.010000000000000007 2.5000000000000004 3.5000000000000004 3581.8200000000006 0.17500000000000007 20.500000000000004 -6.9349999999999987 839.81770833333337 2.2522727272727274 20190601.500000004
decision_type=10 2 10 10 10 10 10 8 10 2 2 8 10 10 2 10 10 10 8 2 10 2 2 10 10 2 10 10 8 10
left_child=1 7 10 6 5 17 14 8 -1 -9 12 26 21 22 29 -16 28 -2 -13 -11 -21 -3 -6 24 -24 -25 -12 -15 -17 -4
right_child=4 2 3 -5 13 -7 -8 9 -10 19 11 18 -14 27 15 16 -18 -19 -20 20 -22 -23 23 25 -26 -27 -28 -29 -30 -31
leaf_value=0.014657597864667575 0.024013390592657603 0.0029497830212276903 0.0087117645490382405 -0.0030641656269934526 -0.0035649550725480993 0.015284040067778077 0.014442144534378141 -0.0025735024368709414 -0.0020835280851569287 -0.00080528086677198244 -0.0011946832520120286 -0.00047955053008120997 -0.0088506283398185458 0.015053686455768697 -0.0048520476498582349 0.0068831527645283556 -0.0013883786387001442 -0.00019334408595419596 0.012340246903728057 0.0048995791733264932 -0.002940627493541249 0.011431483410632434 0.012550333537734472 -0.0025708990820808341 0.0014023430148760478 0.020827184945344926 0.014493886558782488 0.0010740421961389654 0.015334638194665651 -0.0017080409019450907
leaf_weight=228 26 371 112 489 7014 129 216 3784 258 3247 170 92 70 68 111 470 151 787 2019 1000 297 335 130 5164 735 25 63 389 221 568
leaf_count=228 26 371 112 489 7014 129 216 3784 258 3247 170 92 70 68 111 470 151 787 2019 1000 297 335 130 5164 735 25 63 389 221 568
internal_value=0 0.0446545 0.137002 0.0641787 -0.0431499 0.0518859 0.0973593 -0.0125307 0.115407 -0.0199968 0.191572 0.218267 0.110937 -0.049769 0.0720314 0.123312 0.152361 0.0116159 0.235631 0.00621244 0.062085 0.139488 -0.0537156 -0.0333438 0.0615553 -0.0491634 0.0609458 0.0630833 0.191723 0.000163247
internal_weight=0 14272 5458 2338 14467 942 1849 8814 486 8328 3120 2344 776 13525 1633 953 842 813 2111 4544 1297 706 13068 6054 865 5189 233 457 691 680
internal_count=28739 14272 5458 2338 14467 942 1849 8814 486 8328 3120 2344 776 13525 1633 953 842 813 2111 4544 1297 706 13068 6054 865 5189 233 457 691 680
shrinkage=0.05


Tree=12
num_leaves=31
num_cat=0
split_feature=225 36 228 36 225 144 41 198 198 37 37 36 226 145 130 162 1 39 100 204 196 165 155 150 226 14 21 125 24 104
split_gain=50.3028 61.4428 26.4279 14.1632 28.5394 10.9908 9.55907 9.72063 7.76583 7.24048 6.75251 6.58946 6.22239 5.64712 5.24141 4.97571 4.61527 4.52594 4.42583 4.3352 5.3041 4.30518 4.4352 5.4338 4.61168 5.68449 4.30247 4.29848 4.0648 4.03541
threshold=2000.0100000000002 3.5000000000000004 20190603.500000004 1.5000000000000002 100.00500000000001 1034.5600000000002 0.18500000000000003 -997.96666666666658 -6757.0625806451599 5.5000000000000009 2.5000000000000004 2.5000000000000004 -48.594999999999992 -242.24999999999997 3.5000000000000004 1.0000000180025095e-35 1.0000000180025095e-35 1.5000000000000002 0.010000000000000007 43.289999999999836 -449.89999999999992 6.5000000000000009 0.51500000000000012 -241.04999999999998 -108.99499999999999 1.0000000180025095e-35 1.0000000180025095e-35 4.5000000000000009 4.5000000000000009 4.1200000000000037
decision_type=10 2 8 2 10 10 2 8 8 2 2 2 10 8 10 10 2 2 10 8 8 10 10 10 10 2 2 10 2 10
left_child=1 2 11 9 6 8 7 -5 -3 26 -9 19 -6 14 -10 27 -13 18 -11 -1 -21 22 23 -2 -25 -26 -4 28 -15 -14
right_child=21 5 3 4 12 -7 -8 10 13 17 -12 16 29 15 -16 -17 -18 -19 -20 20 -22 -23 -24 24 25 -27 -28 -29 -30 -31
leaf_value=-0.0022022653827253654 0.0032069561483208525 -0.0067578965081618383 0.005187720101532625 -0.0031988070422900475 -0.0020427111302613373 -0.0013596484736938563 -0.0037660186820560036 0.011027382619238951 0.0007480597149494083 0.0088888436405562526 0.005009647342855925 0.0049178868454570574 0.0085852543978641432 0.0089859649441494417 0.020891952573468812 0.016961955419573627 0.014356375188009824 -0.0037867043290706667 -0.0030965557002057935 0.021373127318090865 0.0047751457390478452 0.0025709032818180691 -0.0036712352091883582 -0.0025138264041294641 -0.0015884665229864287 0.0099853814177259196 -0.0022769006562680725 -0.0026500057801604271 0.014470141426982167 -0.0039843702110750924
leaf_weight=196 516 65 199 207 2838 224 225 999 215 347 874 192 240 917 38 366 398 151 99 54 443 422 5161 5774 285 169 6443 60 535 87
leaf_count=196 516 65 199 207 2838 224 225 999 215 347 874 192 240 917 38 366 398 151 99 54 443 422 5161 5774 285 169 6443 60 535 87
internal_value=0 0.03669 0.0112439 -0.00256472 0.0358387 0.183815 0.12048 0.14166 0.205339 -0.0315835 0.164386 0.148028 -0.0258034 0.215725 0.0754725 0.234619 0.225697 0.0739054 0.124568 0.0819017 0.131571 -0.0478422 -0.0513607 -0.0344758 -0.0426462 0.0543972 -0.0410651 0.209294 0.220133 0.104821
internal_weight=0 16412 13992 12709 5470 2420 2305 2080 2196 7239 1873 1283 3165 2131 253 1878 590 597 446 693 497 12327 11905 6744 6228 454 6642 1512 1452 327
internal_count=28739 16412 13992 12709 5470 2420 2305 2080 2196 7239 1873 1283 3165 2131 253 1878 590 597 446 693 497 12327 11905 6744 6228 454 6642 1512 1452 327
shrinkage=0.05


Tree=13
num_leaves=31
num_cat=0
split_feature=225 36 226 154 228 24 133 41 162 202 37 215 35 34 204 59 36 192 156 156 228 192 119 1 192 100 165 201 215 40
split_gain=45.8816 79.6365 16.8509 9.78661 9.24702 8.51276 8.51568 7.6853 7.2588 9.26102 6.71269 6.59575 6.83071 6.19035 6.02816 5.2141 6.80606 9.98999 4.98643 4.82815 4.80558 4.62199 4.19353 4.16971 4.28103 4.0217 3.98631 6.46267 8.24234 3.88872
threshold=200.05000000000004 1.5000000000000002 -21.244999999999994 -292.57999999999993 20190521.500000004 3.5000000000000004 -4.9499999999999993 -0.15499999999999997 1.0000000180025095e-35 1.5000000000000002 5.5000000000000009 1.9101010101010105 1.0000000180025095e-35 15.000000000000002 -1384.6399999999994 -19.979999999999997 3.5000000000000004 2783.5708333333337 -52.004999999999981 -0.99499999999999988 20190510.500000004 45.002500000000005 3.5000000000000004 1.0000000180025095e-35 2706.5525000000007 0.050000000000000031 1.0000000180025095e-35 9.5000000000000018 1.8280788177339904 0.20500000000000004
decision_type=10 2 10 8 10 2 8 2 10 10 2 8 2 2 10 10 2 10 10 8 10 10 10 2 10 10 10 10 10 2
left_child=1 10 4 18 -2 6 14 -4 26 -10 19 20 -13 25 -5 -11 -17 22 -3 21 -8 -1 -18 24 -9 -12 -6 28 -28 -7
right_child=2 3 7 5 8 29 11 23 9 15 13 12 -14 -15 -16 16 17 -19 -20 -21 -22 -23 -24 -25 -26 -27 27 -29 -30 -31
leaf_value=0.031219734251499178 0.01005461642259284 0.010802393759021887 -0.0041565341074272519 0.014293757858066601 -0.0033537914034230442 0.011683236536395048 0.022226467254486952 0.0054599000234156854 0.012961575441707777 -0.0018361881461574905 0.0095012936902149278 0.0018163710972908078 0.0089745729062810295 -0.0037420469987599148 0.0036259774380439039 -0.0010864226677375804 0.018070544919063306 0.00015653127454706538 -0.0038897774377023315 -0.0016817248796658836 -0.0017217596593104541 0.003004708505691366 -6.9680867286828844e-05 0.0087075615679207824 -0.0067262589063459242 -0.005666434049606324 -0.0011152610222498575 -0.0027164676310327241 0.0081861904088439789 0.0041612677855195164
leaf_weight=21 158 74 221 466 8184 1566 22 240 127 3023 347 531 895 173 185 682 174 261 263 5883 438 47 39 602 103 50 750 2672 349 193
leaf_count=21 158 74 221 466 8184 1566 22 240 127 3023 347 531 895 173 185 682 174 261 263 5883 438 47 39 602 103 50 750 2672 349 193
internal_value=0 0.0505796 -0.0314119 0.150825 -0.0396612 0.163698 0.126632 0.0847501 -0.0420005 -0.00679612 -0.0206425 0.0925937 0.126181 0.0830264 0.225244 -0.0148807 0.04224 0.134279 -0.0132721 -0.0305722 -0.0115282 0.234363 0.294982 0.124011 0.03601 0.15182 -0.0546805 -0.0277797 0.0367704 0.217158
internal_weight=0 11154 17585 4633 16419 4296 2537 1166 16261 4306 6521 1886 1426 570 651 4179 1156 474 337 5951 460 68 213 945 343 397 11955 3771 1099 1759
internal_count=28739 11154 17585 4633 16419 4296 2537 1166 16261 4306 6521 1886 1426 570 651 4179 1156 474 337 5951 460 68 213 945 343 397 11955 3771 1099 1759
shrinkage=0.05


Tree=14
num_leaves=31
num_cat=0
split_feature=225 14 225 225 227 1 41 144 13 197 34 144 226 218 141 80 80 161 51 55 215 165 3 24 21 141 66 12 41 189
split_gain=41.5351 27.6167 18.6625 17.2659 16.574 10.4246 7.504 6.84271 6.71274 7.79824 6.2783 5.97181 5.63876 5.53226 5.51503 5.45462 4.95925 4.65248 4.56662 4.29372 6.19695 5.14758 4.01979 3.97398 3.96788 3.73672 3.73128 3.53815 5.71656 3.46669
threshold=2000.0100000000002 1.0000000180025095e-35 200.05000000000004 -4.9499999999999993 20190566.000000004 1.0000000180025095e-35 -0.15499999999999997 -499.95999999999998 1.0000000180025095e-35 -0.50499999999999989 15.000000000000002 -1.0000000180025095e-35 -48.594999999999992 0.50007809909503864 -112.59499999999998 -204.24499999999998 -813.4899999999999 1.5000000000000002 -1582.5999999999997 -2.9899999999999998 1.7245689655172416 1.0000000180025095e-35 26.500000000000004 4.5000000000000009 1.0000000180025095e-35 -1666.6649999999997 3.5000000000000004 1.0000000180025095e-35 0.25500000000000006 9558.2350000000024
decision_type=10 2 10 8 10 2 2 10 2 8 2 8 10 8 10 10 10 10 10 10 8 10 2 2 2 10 10 2 2 10
left_child=1 3 11 4 18 -5 -7 -4 24 16 23 -3 14 15 -9 -13 -10 -17 -1 -2 -21 25 -12 -11 -8 -22 29 28 -15 -23
right_child=19 2 7 5 -6 6 8 12 9 10 22 13 -14 27 -16 17 -18 -19 -20 20 21 26 -24 -25 -26 -27 -28 -29 -30 -31
leaf_value=-0.0094475736916065228 -0.002864616267962266 0.014360918189655215 0.013059129347575122 -0.0018241196696745527 -0.003764225204426601 -0.0011978354090464033 0.0072852311094128907 0.0083070264215681974 0.01613487324749048 0.0062483728696522828 0.010791124242544175 0.015945631089723772 0.0071977837613838571 0.0067458525716448114 -0.0015624746643991233 0.00046203623709416096 0.00038403129017826923 0.0234046656800353 0.012362730637192726 -0.0023326862458910406 0.017436658025815569 0.010620077214906553 0.0008792303423157382 0.013221235234043442 -0.0022182500590439713 -0.00075094993808846216 0.023335644474317289 0.010298301219728178 -0.012952743317836371 0.0014482320818517891
leaf_weight=25 7963 298 116 5051 249 2014 126 157 52 497 125 72 272 662 1438 563 1283 23 600 2784 29 163 563 347 856 1079 29 984 39 280
leaf_count=25 7963 298 116 5051 249 2014 126 157 52 497 125 72 272 662 1438 563 1283 23 600 2784 29 163 563 347 856 1079 29 984 39 280
internal_value=0 0.0333369 0.0988331 0.00764513 0.142887 -0.00318512 0.0255006 0.0255171 0.0513793 0.0758202 0.124505 0.153883 0.0108748 0.136924 -0.0118199 0.0591647 0.0199509 0.0272503 0.229806 -0.043476 -0.0182653 0.0317557 0.0536017 0.182304 -0.0199772 -0.00549841 0.119208 0.167289 0.112998 0.0964595
internal_weight=0 16412 4624 11788 874 10914 5863 1983 3849 2867 1532 2641 1867 2343 1595 658 1335 586 625 12327 4364 1580 688 844 982 1108 472 1685 701 443
internal_count=28739 16412 4624 11788 874 10914 5863 1983 3849 2867 1532 2641 1867 2343 1595 658 1335 586 625 12327 4364 1580 688 844 982 1108 472 1685 701 443
shrinkage=0.05


Tree=15
num_leaves=31
num_cat=0
split_feature=225 36 228 1 159 36 192 154 41 34 37 134 148 215 37 1 154 188 36 116 215 89 134 164 150 224 215 187 228 205
split_gain=35.4486 48.8527 21.0215 11.0135 9.89479 7.80201 19.0074 7.2388 7.00528 5.5496 5.54815 4.97737 6.8428 4.75033 4.67353 4.66571 4.42282 5.55793 9.06938 6.50937 5.31915 4.53125 4.34538 4.23737 4.20911 4.10069 4.01282 4.60132 3.88493 3.72423
threshold=2000.0100000000002 3.5000000000000004 20190603.500000004 1.0000000180025095e-35 602.00000000000011 1.5000000000000002 91.915000000000006 -1770.53 0.22500000000000003 15.000000000000002 2.5000000000000004 1412.7500000000002 -347.31499999999994 1.4463601532567052 3.5000000000000004 1.0000000180025095e-35 -519.89999999999986 4767.1128437594361 3.5000000000000004 1.0000000180025095e-35 1.4463601532567052 -449.68499999999995 500.4550000000001 1.5000000000000002 -1.0000000180025095e-35 3326.6650000000004 1.8017857142857145 557.6711621779865 20190623.500000004 286.64500000000004
decision_type=10 2 8 2 10 2 10 8 2 2 2 10 8 8 2 2 10 10 2 10 8 10 10 10 10 10 10 10 10 8
left_child=1 2 8 -4 7 9 10 -3 15 14 -7 12 24 -12 -5 -1 -2 18 -18 20 28 22 -21 -8 -9 26 27 -14 -20 -17
right_child=16 4 3 5 -6 6 23 11 -10 -11 13 -13 25 -15 -16 29 17 -19 19 21 -22 -23 -24 -25 -26 -27 -28 -29 -30 -31
leaf_value=0.0032321176552859536 -0.0032502229380722784 -0.0011826658038639583 -0.002008666449752985 -0.00018677770714866642 -0.0023501332005802194 0.010695586890808791 -0.00097167656220081106 0.0094649628549814228 -0.0059633982039633254 -0.0027778548359287981 -0.0048529708022329995 0.024888557926663814 0.0082462508068274348 0.0061682797125438707 0.0052474606913165195 -0.00027967310614056056 -0.0019806711933276614 -0.0032929463056159168 0.0073620365542727845 0.0031782236497302158 0.010691618243573418 -0.0019299225484570579 0.023508069451366152 0.0081105646987756092 -0.0063336706948730189 -0.011180704324082896 0.013687400784706222 0.028088710556427639 -0.0078020609107362221 0.011066639986303119
leaf_weight=411 5175 163 5545 1741 212 649 1851 70 105 1636 119 53 1119 548 512 81 3028 2395 86 429 355 727 28 138 106 22 647 30 83 675
leaf_count=411 5175 163 5545 1741 212 649 1851 70 105 1636 119 53 1119 548 512 81 3028 2395 86 429 355 727 28 138 106 22 647 30 83 675
internal_value=0 0.0282268 0.00555749 -0.00668227 0.159366 0.019132 0.0548553 0.179163 0.128138 -0.0112268 0.148087 0.195313 0.187273 0.0840394 0.0209633 0.150398 -0.0427503 -0.0266004 -0.00674727 0.051519 0.144316 0.0104498 0.0884763 -0.00683072 -0.00100247 0.2055 0.210757 0.175287 -0.00170839 0.197019
internal_weight=0 16433 14011 12739 2422 7194 3305 2210 1272 3889 1316 2047 1994 667 2253 1167 12306 7131 4736 1708 524 1184 457 1989 176 1818 1796 1149 169 756
internal_count=28739 16433 14011 12739 2422 7194 3305 2210 1272 3889 1316 2047 1994 667 2253 1167 12306 7131 4736 1708 524 1184 457 1989 176 1818 1796 1149 169 756
shrinkage=0.05


Tree=16
num_leaves=31
num_cat=0
split_feature=228 144 36 225 213 188 116 36 226 225 184 197 36 200 204 135 224 228 139 11 21 36 37 134 224 24 24 11 134 40
split_gain=32.6562 26.7743 29.6409 22.1148 13.5617 8.1689 7.8012 15.0277 12.076 6.2121 5.97319 5.92512 5.86955 5.47952 6.54894 4.8183 4.74349 4.5846 5.80845 4.3481 4.88774 4.45625 5.15604 4.2016 3.94229 3.9142 3.90297 3.90014 3.65739 3.48898
threshold=20190618.500000004 -1.0000000180025095e-35 1.5000000000000002 2100.1500000000005 2.8017857142857143 3645.1002908974738 1.0000000180025095e-35 2.5000000000000004 -2018.8899999999996 240.19500000000002 2.5000000000000004 -1.9949999999999999 3.5000000000000004 2667.3513608458766 -1112.7300000000002 -499.49999999999994 324.93000000000001 20190520.500000004 -166.74499999999998 1.0000000180025095e-35 1.0000000180025095e-35 1.0000000180025095e-35 1.5000000000000002 19.640000000000004 400.50000000000006 1.5000000000000002 -1.0000000180025095e-35 1.0000000180025095e-35 3.0050000000000003 -0.12499999999999999
decision_type=8 10 2 10 8 8 10 2 10 8 10 10 2 8 10 10 10 10 10 2 2 2 2 10 10 2 2 2 10 2
left_child=4 2 19 9 11 16 7 -3 -9 -4 13 15 23 14 28 -1 -6 18 -17 20 -2 -22 -23 -10 -14 -21 -13 -7 -5 -11
right_child=1 6 3 10 5 27 -8 8 12 29 -12 26 24 -15 -16 17 -18 -19 -20 25 21 22 -24 -25 -26 -27 -28 -29 -30 -31
leaf_value=0.015305433008405898 0.0068636904796585442 -0.0030727582084258314 0.012890801329868735 0.012477035588532123 0.011185672085604862 0.002040761480823525 -0.0030644696829011503 -0.0013448917526123324 0.0014500665271736011 0.0037364911106792659 -0.0028678723450364738 -7.3417177401393304e-05 0.0095967206517891257 -0.0019262611101835204 0.002678263207861022 0.020035045184195042 0.00034067306370861764 -0.00070502271110924172 0.0022973965480923655 -0.0024517120893843875 -0.0029345563288774557 0.0065163579644616125 -0.0015089306079560251 0.012366550702912113 -0.0056373623726160629 0.0073147354325405634 0.013246526043473579 0.011467746136955514 0.034092703958352406 0.0081201837031611799
leaf_weight=54 160 3736 461 106 936 734 8459 1891 1077 740 841 83 553 273 255 60 113 1829 200 167 3181 291 641 96 46 266 163 129 24 1174
leaf_count=54 160 3736 461 106 936 734 8459 1891 1077 740 841 83 553 273 255 60 113 1829 200 167 3181 291 641 96 46 266 163 129 24 1174
internal_value=0 -0.0161988 0.0288006 0.0935816 0.0782945 0.141062 -0.0405458 -0.0168305 0.0286835 0.153606 -0.00152104 0.0280593 0.0879975 0.0698443 0.146688 0.0111861 0.200349 0.00356243 0.127814 -0.0245275 -0.0342036 -0.0408742 0.0199364 0.0468697 0.168536 0.07096 0.175048 0.0689979 0.329352 0.128507
internal_weight=0 24438 8580 3874 4301 1912 15858 7399 3663 2375 1499 2389 1772 658 385 2143 1049 2089 260 4706 4273 4113 932 1173 599 433 246 863 130 1914
internal_count=28739 24438 8580 3874 4301 1912 15858 7399 3663 2375 1499 2389 1772 658 385 2143 1049 2089 260 4706 4273 4113 932 1173 599 433 246 863 130 1914
shrinkage=0.05


Tree=17
num_leaves=31
num_cat=0
split_feature=225 36 36 193 154 159 21 37 159 37 154 12 88 155 144 145 147 92 11 153 33 55 215 147 6 37 218 226 115 150
split_gain=29.4151 41.8732 15.0103 23.2675 9.24595 8.79719 8.77775 8.5034 8.91619 6.40985 5.98222 5.36009 5.09978 4.94651 4.6982 4.5918 4.59022 5.32002 4.33733 4.10046 4.07489 3.98558 4.5287 3.94643 3.82593 3.69776 3.63073 3.57039 4.40837 3.90508
threshold=2043.2400000000002 3.5000000000000004 1.5000000000000002 24.500000000000004 -61.449999999999996 602.00000000000011 1.0000000180025095e-35 2.5000000000000004 100.06500000000001 2.5000000000000004 -1770.53 1.0000000180025095e-35 -1.0049999999999997 1.0000000180025095e-35 91.500000000000014 -149.67499999999998 -1.0000000180025095e-35 -14.949999999999998 1.0000000180025095e-35 690.49000000000012 20.500000000000004 -0.99499999999999988 1.5465367965367969 -199.95999999999995 1.0000000180025095e-35 3.5000000000000004 0.50007809909503864 -9.9949999999999992 1.0000000180025095e-35 -1.4699999999999998
decision_type=10 2 2 8 10 10 2 2 10 2 8 2 10 10 10 10 8 8 2 10 2 10 8 10 2 2 10 10 10 10
left_child=1 2 6 4 -4 10 24 8 12 -5 -3 -8 -6 18 15 -14 -12 -18 -13 26 21 -2 -23 -24 -1 -20 -17 29 -29 -9
right_child=20 5 3 9 7 -7 11 27 -10 -11 16 13 14 -15 -16 19 17 -19 25 -21 -22 22 23 -25 -26 -27 -28 28 -30 -31
leaf_value=0.009368317288368247 -0.0026669490141832831 -0.00092212366076504311 -0.0035122520419177392 0.0096649122679322436 0.019611056984374018 -0.0022356435146233806 -0.0027464226955645405 0.0071325011253356944 -0.0036416648179804743 0.0037647746519854962 0.015307795041399039 0.0006434570967876101 -0.0035689620339140605 -0.0024561049774196866 -0.0020074939274269603 0.00603757269837806 -0.0021473202728113888 0.0088345203928711299 0.0015063981401423614 -0.0072206710486911064 0.015589065353075663 -0.0021940608305350837 0.0087870249902111258 0.00040078407144659506 -0.0080317602803309761 0.013818514347076417 0.0128107480074171 0.0017283027176460603 0.023777152225375176 -0.0031798040041966097
leaf_weight=258 7933 164 1272 939 66 219 4223 100 291 903 253 1734 98 1292 184 521 118 1686 120 43 33 2416 153 1688 36 124 319 409 24 1120
leaf_count=258 7933 164 1272 939 66 219 4223 100 291 903 253 1734 98 1292 184 521 118 1686 120 43 33 2416 153 1688 36 124 319 409 24 1120
internal_value=0 0.025568 0.00460416 0.0409411 0.00179445 0.146505 -0.0247426 0.0306556 0.0845885 0.13545 0.16536 -0.0313931 0.121802 -0.00099859 0.106482 0.133985 0.180014 0.162324 0.030435 0.156777 -0.0391432 -0.0400932 -0.0154095 0.0219548 0.144754 0.155268 0.172195 -0.0190031 0.0590082 -0.0466907
internal_weight=0 16516 14076 6289 4447 2440 7787 3175 1522 1842 2221 7493 1231 3270 1165 981 2057 1804 1978 883 12223 12190 4257 1841 294 244 840 1653 433 1220
internal_count=28739 16516 14076 6289 4447 2440 7787 3175 1522 1842 2221 7493 1231 3270 1165 981 2057 1804 1978 883 12223 12190 4257 1841 294 244 840 1653 433 1220
shrinkage=0.05


Tree=18
num_leaves=31
num_cat=0
split_feature=228 144 36 60 213 225 188 33 116 36 226 34 35 37 222 135 228 164 37 224 215 184 13 24 148 204 21 40 11 138
split_gain=27.5816 22.5912 24.6873 16.3582 11.5061 7.94504 7.12767 6.81671 6.39639 12.4686 9.68218 6.23928 7.73737 5.69219 5.63269 5.32874 5.13542 4.30728 4.28605 4.18032 4.06047 3.71879 3.70823 5.93588 3.55044 4.64918 3.49777 3.45758 3.44506 3.36567
threshold=20190618.500000004 -1.0000000180025095e-35 1.0000000180025095e-35 661.61000000000001 2.8017857142857143 317.94000000000005 3645.1002908974738 78.500000000000014 1.0000000180025095e-35 2.5000000000000004 -2018.8899999999996 15.000000000000002 1.0000000180025095e-35 3.5000000000000004 12.665000000000001 -1.0000000180025095e-35 20190602.500000004 1.5000000000000002 3.5000000000000004 324.93000000000001 1.8675438596491232 3.5000000000000004 1.0000000180025095e-35 2.5000000000000004 -19.039999999999996 -894.00000000000261 1.0000000180025095e-35 0.27500000000000008 1.0000000180025095e-35 -19.689999999999994
decision_type=8 10 2 10 8 8 8 2 10 2 10 2 2 2 10 10 10 10 2 10 10 10 2 2 8 8 2 2 2 10
left_child=4 2 13 5 14 -4 19 8 9 -3 -11 21 18 26 16 -12 -1 -17 -13 -6 -16 -7 -15 -24 -14 -26 -2 -25 -8 -22
right_child=1 7 3 -5 6 11 28 -9 -10 10 15 12 24 22 20 17 -18 -19 -20 -21 29 -23 23 27 25 -27 -28 -29 -30 -31
leaf_value=0.010663696958637628 0.0064085471543293554 -0.0028548740780596246 0.011405550916161803 -0.0014041986403365932 0.010355859935984143 0.0073454771064600704 0.0018000712004117162 0.026607317016238259 -0.0028375480944838206 -0.0012308491848492004 0.013070946248018578 0.00058643618747906349 0.00077214137291134639 -0.0011394505885368336 -0.001946538704491797 0.0025218210121318793 0.002090909249656569 0.014715606493777351 -0.0084946846787157006 0.00017498327435645384 0.014846425185926626 -0.00497648916207254 -0.0014912991214599183 0.014952261532378046 0.016864704260346936 0.0053581990230651133 -0.002964373418708911 -0.007121580131351949 0.010660015595282695 0.0019369407089700472
leaf_weight=244 103 3733 468 1200 936 1416 734 21 8455 1889 146 474 339 334 1176 1538 615 76 179 113 61 64 134 157 102 630 2960 20 129 293
leaf_count=244 103 3733 468 1200 936 1416 734 21 8455 1889 146 474 339 334 1176 1538 615 76 179 113 61 64 134 157 102 630 2960 20 129 293
internal_value=0 -0.0148531 0.0264818 0.0732779 0.0719885 0.106403 0.129804 -0.0372175 -0.0379724 -0.0164644 0.025104 0.0886251 0.0477383 -0.0350043 0.0257168 0.0784694 0.0905204 0.06192 -0.0380575 0.185183 -0.0106663 0.136253 0.0503771 0.128954 0.100049 0.139231 -0.0529838 0.249161 0.0624889 0.0832291
internal_weight=0 24438 8580 4872 4301 3672 1912 15858 15837 7382 3649 3204 1724 3708 2389 1760 859 1614 653 1049 1530 1480 645 311 1071 732 3063 177 863 354
internal_count=28739 24438 8580 4872 4301 3672 1912 15858 15837 7382 3649 3204 1724 3708 2389 1760 859 1614 653 1049 1530 1480 645 311 1071 732 3063 177 863 354
shrinkage=0.05


Tree=19
num_leaves=31
num_cat=0
split_feature=225 36 1 36 202 159 41 191 207 34 226 147 92 218 227 13 21 41 197 134 148 33 14 21 24 100 154 41 226 14
split_gain=24.3684 35.7477 12.7828 9.18453 17.0194 7.46619 6.71873 5.87206 5.41587 5.18468 5.06327 4.79854 5.92592 4.17305 4.4208 4.05912 5.12994 4.34172 4.4663 3.78792 4.33331 3.56808 3.46666 3.41404 3.40327 3.48029 3.3681 4.56849 4.66767 4.76761
threshold=2043.2400000000002 3.5000000000000004 1.0000000180025095e-35 1.5000000000000002 1.5000000000000002 602.00000000000011 0.26500000000000007 100.01000000000001 2949.393565365026 15.000000000000002 -9.9949999999999992 -1.0000000180025095e-35 -14.949999999999998 0.51044937217170594 20190521.500000004 1.0000000180025095e-35 1.0000000180025095e-35 -0.13499999999999998 -3.0749999999999997 295.23000000000008 -347.31499999999994 20.500000000000004 1.0000000180025095e-35 1.0000000180025095e-35 5.5000000000000009 1.0000000180025095e-35 -519.89999999999986 -0.14499999999999999 -3022.0699999999993 1.0000000180025095e-35
decision_type=10 2 2 2 10 10 2 10 10 2 10 8 8 8 8 2 2 2 8 10 8 2 2 2 2 8 10 2 10 2
left_child=1 2 22 9 6 8 13 10 11 15 -6 -3 -13 -5 -15 16 -4 -17 -19 20 -14 26 23 -1 25 -20 -2 -28 -29 -30
right_child=21 5 3 4 7 -7 -8 -9 -10 -11 -12 12 19 14 -16 17 -18 18 24 -21 -22 -23 -24 -25 -26 -27 27 28 29 -31
leaf_value=0.0060697032582192195 -0.0027981036418388903 0.014602088552849894 0.0072278080463764223 0.0019491316594860771 0.00091964039713778403 -0.0020565649996337281 -0.0055092579541871183 -0.0032044678522972977 -0.0016542494449080253 -0.0021914280225895453 0.0095982680518423499 -0.0027966629293628207 -0.0017930220812559128 0.012630343473500619 0.0067017877581203068 0.00049256943166255953 -0.0022512459528835605 -0.0022796563193446299 0.015864971122691331 0.020097533578518779 0.008401750407354561 0.01463825341426965 0.0012303086454058547 -0.0022643820891057815 0.015278215395907561 0.0035426075661222547 -0.0033026704523948496 -0.0015707850111540723 -0.00072931241776262015 0.0040916193867334607
leaf_weight=126 5142 262 168 275 1081 219 104 794 147 1757 199 133 112 472 942 668 949 122 71 64 1503 33 951 4968 132 297 1783 3199 1120 946
leaf_count=126 5142 262 168 275 1081 219 104 794 147 1757 199 133 112 472 942 668 949 122 71 64 1503 33 951 4968 132 297 1783 3199 1120 946
internal_value=0 0.0232866 0.00391668 0.0300615 0.0651538 0.135029 0.136505 0.00347 0.152399 -0.00252781 0.0453779 0.165545 0.147255 0.151695 0.173615 0.0276199 -0.0165114 0.0658327 0.125954 0.16335 0.153895 -0.0356124 -0.0308177 -0.0411648 0.167812 0.1184 -0.0365014 -0.0223035 -0.00748756 0.0295628
internal_weight=0 16516 14076 8031 3867 2440 1793 2074 2221 4164 1280 2074 1812 1689 1414 2407 1117 1290 622 1679 1615 12223 6045 5094 500 368 12190 7048 5265 2066
internal_count=28739 16516 14076 8031 3867 2440 1793 2074 2221 4164 1280 2074 1812 1689 1414 2407 1117 1290 622 1679 1615 12223 6045 5094 500 368 12190 7048 5265 2066
shrinkage=0.05


end of trees

feature importances:
38=51
227=34
43=24
228=23
230=22
39=20
217=19
3=18
156=15
26=14
161=14
36=13
23=12
146=12
220=12
229=12
158=10
15=9
37=9
152=9
164=9
215=9
194=8
204=8
13=7
42=7
102=7
157=7
16=6
136=6
149=6
224=6
35=5
140=5
150=5
167=5
190=5
199=5
207=5
226=5
57=4
82=4
118=4
127=4
147=4
159=4
206=4
14=3
111=3
130=3
133=3
137=3
143=3
153=3
166=3
189=3
192=3
200=3
209=3
225=3
2=2
24=2
53=2
60=2
62=2
91=2
94=2
106=2
117=2
155=2
186=2
191=2
202=2
218=2
5=1
8=1
21=1
22=1
33=1
41=1
58=1
61=1
64=1
68=1
79=1
90=1
109=1
121=1
132=1
135=1
141=1
163=1
193=1
195=1
198=1
203=1
214=1
216=1
221=1
222=1
223=1

parameters:
[boosting: gbdt]
[objective: regression]
[metric: auc,l2]
[tree_learner: serial]
[device_type: cpu]
[data: ]
[valid: ]
[num_iterations: 100]
[learning_rate: 0.05]
[num_leaves: 31]
[num_threads: 0]
[max_depth: -1]
[min_data_in_leaf: 20]
[min_sum_hessian_in_leaf: 0.001]
[bagging_fraction: 0.8]
[pos_bagging_fraction: 1]
[neg_bagging_fraction: 1]
[bagging_freq: 5]
[bagging_seed: 3]
[feature_fraction: 0.9]
[feature_fraction_bynode: 1]
[feature_fraction_seed: 2]
[early_stopping_round: 0]
[first_metric_only: 0]
[max_delta_step: 0]
[lambda_l1: 0]
[lambda_l2: 0]
[min_gain_to_split: 0]
[drop_rate: 0.1]
[max_drop: 50]
[skip_drop: 0.5]
[xgboost_dart_mode: 0]
[uniform_drop: 0]
[drop_seed: 4]
[top_rate: 0.2]
[other_rate: 0.1]
[min_data_per_group: 100]
[max_cat_threshold: 32]
[cat_l2: 10]
[cat_smooth: 10]
[max_cat_to_onehot: 4]
[top_k: 20]
[monotone_constraints: ]
[feature_contri: ]
[forcedsplits_filename: ]
[forcedbins_filename: ]
[refit_decay_rate: 0.9]
[cegb_tradeoff: 1]
[cegb_penalty_split: 0]
[cegb_penalty_feature_lazy: ]
[cegb_penalty_feature_coupled: ]
[verbosity: 1]
[max_bin: 255]
[max_bin_by_feature: ]
[min_data_in_bin: 3]
[bin_construct_sample_cnt: 200000]
[histogram_pool_size: -1]
[data_random_seed: 1]
[output_model: LightGBM_model.txt]
[snapshot_freq: -1]
[input_model: ]
[output_result: LightGBM_predict_result.txt]
[initscore_filename: ]
[valid_data_initscores: ]
[pre_partition: 0]
[enable_bundle: 1]
[max_conflict_rate: 0]
[is_enable_sparse: 1]
[sparse_threshold: 0.8]
[use_missing: 1]
[zero_as_missing: 0]
[two_round: 0]
[save_binary: 0]
[header: 0]
[label_column: ]
[weight_column: ]
[group_column: ]
[ignore_column: ]
[categorical_feature: ]
[predict_raw_score: 0]
[predict_leaf_index: 0]
[predict_contrib: 0]
[num_iteration_predict: -1]
[pred_early_stop: 0]
[pred_early_stop_freq: 10]
[pred_early_stop_margin: 10]
[convert_model_language: ]
[convert_model: gbdt_prediction.cpp]
[num_class: 1]
[is_unbalance: 0]
[scale_pos_weight: 1]
[sigmoid: 1]
[boost_from_average: 1]
[reg_sqrt: 0]
[alpha: 0.9]
[fair_c: 1]
[poisson_max_delta_step: 0.7]
[tweedie_variance_power: 1.5]
[max_position: 20]
[lambdamart_norm: 1]
[label_gain: ]
[metric_freq: 1]
[is_provide_training_metric: 0]
[eval_at: ]
[multi_error_top_k: 1]
[num_machines: 1]
[local_listen_port: 12400]
[time_out: 120]
[machine_list_filename: ]
[machines: ]
[gpu_platform_id: -1]
[gpu_device_id: -1]
[gpu_use_dp: 0]

end of parameters

pandas_categorical:[]
